2708 64
35 0.17977087 -0.2015749 -0.22768633 0.33478042 -0.3670005 0.11829296 -0.047825605 0.45002633 0.23941141 -0.3540208 0.31963044 -0.16505747 0.11266721 -0.378347 -0.20516679 0.16450839 -0.1416942 -0.10821772 -0.2687627 -0.04265461 0.14670782 -0.14911154 -0.33256143 -0.008455187 0.70176524 0.16551556 0.18484306 0.37362236 0.4642117 0.1445825 -0.014375715 0.497532 0.6298339 -0.16412154 -0.19221681 -0.43185654 -0.0533601 0.12920639 0.030724464 0.09785444 -0.031235859 0.08009788 0.19171505 -0.18602689 0.11515814 0.3960166 0.24680161 -0.09471109 -0.3270761 0.025579836 0.31510663 -0.21579024 0.19393295 -0.54697967 -0.24666353 -0.11557688 -0.058991488 -0.11970337 -0.46713868 0.3159012 -0.37840882 0.39923236 -0.03435524 -0.29184058
1365 -0.3568507 0.040560894 -0.014099347 0.23742223 -0.3955837 -0.0701976 0.2985436 -0.07730362 0.26822257 0.16334663 0.08729224 0.11988111 -0.619062 -0.0977873 -0.12908909 0.11506613 0.61112577 -0.34952337 -0.15108296 -0.097837284 -0.017076174 0.4540507 -0.36526793 0.07118339 0.9895427 0.08772375 0.06406978 0.21066009 0.4558366 0.21631041 0.10501223 -0.46835312 -0.19292195 -0.6865493 -0.25643098 0.2148 -0.1843455 0.035970308 0.013476513 0.05037944 0.27563682 -0.06733226 0.4979244 -0.20050116 0.6589648 0.11083178 0.21081066 -0.33277664 0.4997553 0.6499996 -0.4553905 -0.4632243 0.17854467 0.27533615 -0.7167889 -0.033371978 0.17580472 0.4737425 0.24118307 -0.14382479 0.06626201 0.49333066 0.12521434 -0.10475058
6213 -0.7203146 -0.10047213 0.22739434 -0.1344383 0.15106778 0.20231105 0.038911726 -0.48050818 0.6737292 -0.4167228 0.58293754 0.4213858 -0.51109356 0.10598485 -0.008794033 0.061724406 0.31154484 -0.38194853 -0.19667499 0.3671354 -0.16381495 0.21145177 0.057844825 -0.20525551 0.36355075 0.21114832 -0.1507061 -0.11310741 0.48136985 0.3017947 0.24858147 -0.022008412 0.550379 0.09789744 -0.27763098 0.24824122 0.50415194 0.09840273 0.046330635 0.09391738 0.16159521 0.41851607 -0.0394924 0.10101964 0.5083306 0.31691292 0.44970682 0.12374262 0.086327426 -0.047485895 0.09249198 -0.18646272 0.31085494 -0.36808422 0.523849 0.08323206 0.5533501 0.04136316 -0.096848726 0.0791747 0.4809861 0.37994173 0.5000899 -0.045187153
3229 0.13931009 -0.0029068037 0.08038616 0.22254407 0.032456126 -0.11589293 -0.4566589 -1.0154024 -0.024723133 0.050540134 0.13660309 0.11008417 0.06902294 0.18972872 -0.22503027 0.24290764 0.7532164 -0.17674696 -0.17119929 0.07472951 -0.094706096 0.26626396 -0.13517979 -0.3114131 1.093806 -0.08689886 0.1925447 0.2979556 -0.29871935 -0.03539728 0.1373091 -0.08420917 0.20132561 -0.41924524 -0.13060738 -0.20804942 -0.20588921 -0.33321926 -0.19755027 -0.3754928 0.12201899 0.05889003 -0.2665304 -0.31853616 0.049730685 0.30658132 0.3735505 -0.20750274 0.5508328 0.78366137 0.14003077 -0.21779206 -0.075419486 -0.26876774 -0.31510404 0.43998408 -0.090352364 -0.117824815 0.5140109 0.22972636 -0.22118588 0.5980833 0.2544241 -0.24946779
910 0.2538682 -0.056825552 0.55650526 0.06667569 -0.03859529 0.12682252 0.24518147 -0.5567369 0.26513997 -0.21204337 0.36839813 -0.09339722 -0.3803572 -0.036160942 0.08786279 0.3258078 0.38437942 0.038004622 0.0194788 -0.013130634 -0.21704647 -0.29595995 -0.13045725 0.45593256 0.29560256 0.11179757 0.61495864 -0.5852842 -0.10361422 0.23875722 0.2157581 0.012299731 -0.39832538 -0.35808173 0.052590515 -0.15037695 0.08992098 -0.013053512 -0.2883675 -0.8998179 -0.04182874 0.014422198 0.49530673 -0.282788 0.9738686 -0.41762614 0.06836996 -0.2507095 0.15010932 0.54989105 0.6809803 -0.94944674 0.5520886 0.4422643 0.29281566 0.22950228 0.1314334 0.59233826 -0.37796035 -0.025818525 0.23293751 0.78558594 0.2704197 0.36406025
4330 -0.11678495 0.26566434 0.23990029 0.21123798 -0.14231633 -0.24922745 -0.096749544 -0.29643464 0.19168113 -0.32721698 0.2837254 -0.04673716 -0.39222777 -0.075978465 -0.39018527 -0.4164967 -0.2561242 -0.94831145 0.18426356 0.0938931 -0.32018054 -0.14741778 -0.09482724 0.513631 -0.028740171 0.081851095 1.028889 -0.6011347 0.26025483 -0.054356355 0.20946696 0.06745709 -0.13598038 -0.19032922 0.0676684 -0.033333793 -0.3348164 0.3214744 -0.006279918 -0.4253303 0.17380004 0.4447691 -0.03593756 -0.3007792 0.32584822 0.4785968 0.24047355 -0.010794622 -0.0505139 0.5361286 -0.018062487 -0.20986737 -0.10323938 -0.71821904 -0.112291634 0.2959779 -0.23902883 0.33751002 0.744069 -0.50451285 0.3042377 0.7208857 -0.2826754 0.5973718
114 -1.0983372 0.045982797 0.30602762 0.09879027 0.22013141 -0.18199997 0.3288546 -0.19243102 0.9552891 -0.074727945 0.45563895 0.28354296 -0.3905017 -0.1410668 -0.28425053 0.2907222 0.12124981 -0.07778518 -0.03342589 0.7790409 0.15151075 0.00091231684 0.15318517 -0.13173223 0.20238626 0.31910607 -0.43816972 -0.13254523 0.36941674 0.5264411 0.24913102 0.45841566 0.3346143 0.09920867 -0.36664626 0.33392507 0.58126736 -0.04814596 0.12400851 -0.5291399 -0.0028297564 0.49781972 -0.0873344 -0.56048584 0.74712473 -0.041180495 0.67477894 0.15233897 -0.1743796 -0.09989891 0.09600583 0.24206737 0.3709546 -0.45308223 0.15921456 0.21395744 0.4890359 -0.38487568 0.25975844 0.086654335 0.12820055 0.6324231 0.2569544 -0.26632673
3231 0.23675054 -0.2196194 -0.30486503 -0.27578798 0.1824822 -0.46914545 -0.5010853 -0.11793859 0.57886666 -0.03005263 0.7372732 0.1272885 -0.11520114 -0.1884812 -0.14089589 0.76073575 -0.42345276 0.23040037 0.35815096 -0.18494773 -0.29123282 0.1912242 0.14469866 -0.17458065 0.1159942 -0.36773807 -0.14344251 0.0035975827 0.05581535 0.6198477 -0.15847695 0.20226638 0.48115748 0.096200675 0.3048503 -0.48451903 0.08461544 0.49505508 -0.10917137 -0.5702349 0.40759826 -0.042045586 0.11483896 0.5894857 0.07126187 0.29936078 -0.13741088 -0.72161895 0.20776516 0.38137382 -0.16325279 -0.64390266 -0.056107476 -0.5986271 -0.6964601 0.34900633 0.17975758 -0.697429 -0.12607756 0.12634337 0.6508581 0.5819474 -0.13840887 -0.3156055
19621 -0.35504836 -0.11174622 0.1893145 -0.038734585 -0.3451404 -0.17816469 0.010609785 -0.75550276 -0.20636705 0.1405643 -0.16417308 -0.26707056 -0.46973374 -0.31665057 0.11270294 -0.2326285 0.6851379 -0.07373274 -0.21439406 -0.47347954 -0.48317108 0.4199871 -0.116628915 -0.6025968 0.5715864 0.017426373 0.46181107 0.5774931 -0.004140155 1.1966375 0.1771198 -0.20485161 -0.31310225 -0.23027253 -0.7345788 -0.49882033 -0.022981104 0.053908702 0.10485494 0.11047943 0.013805123 -0.06708606 -0.1477218 -0.19207412 1.0280348 0.11265762 -0.04673765 0.1638474 0.55604374 0.35895187 -0.05587875 -0.5317303 0.1275582 0.25767443 -0.5121366 0.053591017 -0.15434963 0.22767246 -0.015437824 -0.28100204 -0.4894612 1.1412033 0.32958257 -0.060129423
1272 0.031533357 0.33300593 0.050753936 -0.23995724 -0.41344684 -0.098079726 0.0829995 -0.4999907 0.33445904 -0.16174965 0.56149745 -0.18112652 0.29726803 0.13785928 0.16360883 0.27878043 -0.59659934 -0.3556291 0.020018896 0.16084793 0.4571941 0.049466792 -0.09098247 -0.017798854 0.5577636 -0.4620857 -0.87664205 0.028632205 0.24818954 0.20615984 0.37166166 -0.2535373 0.35220817 -0.55922043 0.17344293 0.02669121 -0.42040327 0.5659481 0.30917743 -0.16033122 0.1711481 0.08030917 0.17582507 0.62425584 0.17071778 -0.14197232 0.2340687 0.123821534 0.20782591 -0.32015765 -0.20680551 -0.34016886 0.07592653 -0.23973143 -0.6067099 0.24563926 -0.024573753 0.3799663 0.01466343 0.22410454 0.64793026 0.5361871 0.39867538 0.21039036
2440 -0.45891553 0.26176748 -0.06818615 -0.31600544 -0.6378238 -0.11568291 -0.31747532 -0.34545058 0.7805838 -0.65277576 0.5543809 -0.90108687 0.84324235 -0.83391994 -0.8577998 -0.3031631 -0.3074797 0.22368474 0.39241332 0.53641915 -0.41531077 0.35228977 -0.25359708 0.012861075 0.40800506 -0.14914483 -0.60737747 0.20721343 -0.09390359 -0.115953594 0.13111262 0.7098925 -0.13831222 -0.16599305 0.49103564 -0.158688 -0.47886726 0.6186933 -0.3376513 -0.19256145 -0.455878 0.21392283 0.20579806 0.07100282 0.19619331 0.20369236 -0.29697415 -0.042745713 0.4580441 0.30588228 -0.785321 -0.060896188 0.6009457 -0.5179996 -0.05272118 0.008667881 -0.37472776 0.55146426 0.11986759 0.10795893 0.51821446 -0.13536434 0.62769544 0.114859596
4584 -0.7778463 -0.130819 -0.51890063 0.2747444 0.04419542 0.09625757 0.2481592 -0.27770802 0.6619337 -0.22295988 0.399747 -0.03440214 -0.18698935 0.47375083 -0.39501783 0.24874315 0.22159131 -0.3972442 -0.3681841 0.5869252 0.064543135 0.1470439 -0.31857678 0.12138959 0.5632508 0.30520523 -0.06605485 -0.0017818089 0.462271 0.34611505 0.28582245 -0.20426215 0.5857825 -0.17355366 -0.2637424 0.20153512 0.19037202 -0.01637286 0.20081967 -0.4246764 0.35247725 0.0024221195 0.45162866 0.07219533 0.8444823 0.50354135 0.5898079 -0.05365535 0.28584293 0.10720712 -0.18417397 -0.6513555 0.47269848 0.33637452 0.30061206 0.25266168 0.45629328 -0.087356344 -0.08528951 -0.11840243 0.18959378 0.39242387 0.5892347 0.16311952
6214 -0.78648406 -0.049060445 0.3441791 -0.032950886 -0.26855078 -0.27536386 0.5559576 -0.20175079 0.51887935 0.053968854 0.44487706 0.109909624 -0.19007674 0.2222442 -0.26203892 -0.12857866 0.6486396 -0.1862506 -0.0001311534 0.5795656 0.17766292 0.14698246 0.27974996 0.33938625 0.53381854 0.10672468 -0.3805778 -0.046454426 0.809605 0.52591956 0.35572293 0.14843658 0.5499388 -0.22742583 -0.029641684 -0.004211939 0.18998472 -0.17410964 0.19596325 -0.7917825 -0.020728614 -0.023925591 -0.034023367 0.39018524 0.5565391 0.44402164 0.4347396 0.26189858 -0.190967 -0.08070779 -0.20882048 -0.2162883 0.061411172 -0.40089154 0.26863286 0.08544055 0.14584811 0.44188976 0.34766924 0.2230505 0.07661146 0.40033683 0.16223276 -0.30499893
24966 0.3714946 0.088959195 0.8944211 0.20881236 -0.15654103 -0.005182875 -0.5272059 -0.6908637 -0.26202843 -0.3051451 0.7715606 0.29854578 0.018349972 0.38573444 -0.09771084 0.35729423 0.411288 0.009137279 0.056214884 -0.03192007 -0.43049827 0.31624463 -0.16458604 0.5469084 -0.0060477476 -0.5796629 0.18129484 0.051707797 0.045322675 0.2521605 -0.45364904 0.72706777 -0.178306 0.14847825 0.49773136 -0.008556432 -0.062631235 -0.6526053 -0.16728464 -0.26040286 0.10077307 0.093116 0.8679747 0.12342804 1.0058308 0.028730625 1.0097946 -0.6546173 -0.20363514 0.61537385 0.2606706 0.028084459 0.33424684 -0.33465222 -0.41482127 0.2775887 0.3918596 0.23574744 0.14448991 -0.61193776 0.18099429 0.25842133 -0.35570323 -0.4291459
2665 -0.21286534 -0.17405987 1.1577873 -0.033500254 -1.1855047 -0.5611925 0.5414588 -0.025867496 0.739672 -0.5155982 0.08012313 -0.9477284 -0.46223223 -0.43122843 -0.77324635 -0.3853299 0.5223348 0.015200326 -0.097704 0.007422859 -0.24735565 0.022133462 0.3012634 -0.022290377 0.22334799 0.5637902 -0.032563303 1.1458297 0.31020042 0.7410805 -0.08424186 -0.74699605 0.06713617 -0.37901378 0.16676302 0.07626314 0.08548579 -0.17294455 0.13750015 -0.038096067 0.8560744 -0.38899627 -0.052790545 -0.8484989 0.18959747 -0.70028824 -0.18741462 -1.0404143 0.99637616 0.31038624 0.28973746 -0.012922373 0.08604793 -0.33823118 -0.47963995 0.079027854 -0.0010617563 -0.25896087 0.06831376 -0.4547611 0.1018771 0.7232869 0.24636488 -0.069815114
20193 -0.3577155 0.72210604 -0.4299635 -0.6115861 -0.45551717 1.1748475 0.1775901 -0.17529894 0.122490555 -0.98991317 0.3341573 -0.9927947 -0.2640061 -0.30185312 0.3045284 0.71075004 0.033956975 0.09295859 0.1204893 0.44760835 -0.26500478 -0.60691386 0.4519146 1.0613966 0.236011 -0.23894848 -0.9126232 -0.3109466 -0.14557707 1.1571964 0.40042788 0.72676367 -0.3185786 -0.6822147 -0.18869554 -0.5908815 -0.9641875 -0.7000781 0.1203222 0.11474082 -0.3014222 0.5251859 -0.698111 -0.052027926 -0.09793951 1.3166806 -0.68780214 -0.20982216 0.07018615 -0.079874694 -0.3332151 -0.025982091 0.408977 -0.49716112 -0.32353988 -0.4182736 0.9640922 0.023745976 0.35162622 0.24632524 0.59128535 0.8506423 -0.5579913 -0.33784503
887 -0.21046066 -0.25823656 0.092540614 -0.2244801 -0.74346715 0.055770863 0.023927432 -0.20063941 0.41426253 -0.38082746 0.37906837 0.03299435 -0.26767588 -0.28385025 0.20780718 -0.03969176 0.21872696 0.012370711 -0.5567521 0.5245697 0.2353005 0.16643757 0.3180919 -0.29606184 0.48100975 0.040445022 0.2737595 0.074767366 0.6032795 -0.19121101 0.4536071 0.23163803 0.44963476 0.09053765 -0.1297113 -0.17054407 0.19379836 -0.080962315 0.07124278 0.43526304 -0.14875391 0.7019632 -0.20927718 0.4057941 0.0822427 0.5496013 0.4204629 -0.16211486 -0.01594915 0.3793928 -0.20746256 -0.38326603 0.22057305 -0.40949753 0.5158929 -0.013645114 0.848983 0.26681978 -0.25113636 0.09243113 0.11629675 0.06536277 0.15964478 -0.11870506
8224 -0.56718445 0.0042633666 -0.1692482 0.12798105 -0.08654842 0.0727027 0.08419204 0.21406044 -0.027285827 -0.61907196 0.71493095 0.06462321 0.38456902 -0.062046994 0.20814054 0.076287195 -0.6200071 0.3423208 0.09722386 0.30778497 -0.29368186 -0.18059804 0.211542 0.55405223 0.29960182 -0.45301655 0.0045323316 0.28731045 -0.23528688 -0.42600247 0.43635893 0.25515103 0.7512148 -0.5577937 0.9668161 -0.22170004 -0.047383424 0.82570213 0.1742903 -0.01106715 -0.21353513 0.44427273 -0.11482475 0.15369692 0.3193734 0.29003486 0.2948757 -0.077102266 0.631481 0.34675267 -0.079095244 0.5112287 -0.020466618 0.07273797 -0.6025736 0.07577097 -0.1281914 0.18831731 -0.26279825 -0.13576888 0.8490794 1.1145073 0.7025964 0.17994529
82920 0.8389548 -0.5831427 -0.10551101 0.4208181 -0.25708997 0.11189101 0.019381084 0.4949023 -0.0020083103 -0.9818885 0.6824912 -0.11697509 -0.14765948 -0.26243857 0.053894438 -0.05453203 -0.052006397 0.24759778 -0.1713721 -0.18421015 0.30372274 -0.5526849 -0.13504139 -0.10721821 0.23459284 0.21716852 0.74418604 0.5873825 0.42814538 0.7363665 0.26605105 0.38907838 0.8851509 -0.62007767 -0.4554736 -0.3427765 0.15611278 0.32778293 -0.16587885 0.061159387 0.035041 0.30365425 -0.15589966 -0.72170883 -0.19200286 0.33786905 0.47473094 0.12227675 -0.33872986 0.1296496 -0.16482472 -0.8901844 0.65872437 -0.84894985 -0.23213163 -0.6682784 -0.26035842 0.23424792 -0.5538699 0.33304116 -0.07181699 0.38127133 -0.113963954 -0.2199705
12182 0.4495322 0.29401118 -0.14849944 0.046705615 0.028976312 0.14228542 0.11633296 -0.93202716 0.8184442 -0.5484387 0.22370411 -0.48232377 0.88590366 0.36533082 0.57993615 0.1503024 0.22902693 0.59286934 -0.17785831 0.43354946 -0.4371182 0.36253756 0.7325192 0.41623613 0.16148603 -1.1193373 -0.26302645 -0.15251914 0.4903594 0.13213064 0.78725785 0.6501656 0.28216684 0.2543327 -0.3525867 0.57658696 -0.037700377 0.61576754 0.52777547 0.37284935 -0.11589839 0.029400848 0.17186646 -1.0578275 0.29255608 0.5195872 -0.10675913 -0.6327482 -0.6242676 0.32817397 0.56026185 -0.006652438 0.25224632 -0.95816326 -0.48523477 -0.2831718 -0.18795954 0.08509976 0.7642777 -0.67456216 0.1860853 -0.22511366 0.5592565 0.49809545
22563 0.079922415 0.483695 -0.051818658 -0.07532664 0.09085999 -0.23893172 -0.004786514 -0.48462895 0.03093632 -0.68796325 0.29493323 0.21860501 -0.29053813 -0.88096714 0.5754767 0.22174191 0.51571745 -0.23576671 0.3085698 -0.1451962 0.074039094 -0.017137 -0.46069133 0.5534482 0.23822016 -0.64147764 0.108279385 0.3714114 -0.11544306 0.280337 0.23792516 0.6827303 0.6976475 -0.56352895 0.87211454 0.033102546 0.1312712 0.89837086 0.48533276 -0.6476412 -0.2137755 0.095119104 0.19142325 0.13448521 0.18704408 0.34715042 -0.35799015 0.048436202 0.5846936 -0.42932 0.45716628 0.31599978 0.17303148 0.16461824 -0.3745042 -0.2155841 -0.18239924 0.20125118 -0.03540721 -0.22464444 0.21442954 0.6008567 0.65929854 0.37246066
12576 -0.53765714 -0.37402117 -0.14989232 0.06388031 -0.51846987 0.62469786 -0.024408236 0.42218253 0.667395 -0.30273604 0.023653278 0.4235001 0.30182207 -0.68714464 -0.29078564 -0.21625528 0.40758228 -0.801895 -0.13281465 -0.13376069 0.5779304 -0.2505489 0.39063516 0.13312308 0.4435149 -0.3180458 -0.03614851 -0.18845695 1.0068731 0.37593672 0.05075885 0.6276516 0.7464239 0.0772751 -0.05271185 -0.5017876 -0.0059613627 0.5550982 -0.476755 0.5622819 0.1796963 0.013269269 0.19597495 -0.33214664 0.36383644 0.36763725 -0.12910144 0.1130267 0.024689749 -0.051501792 0.48744208 -0.49268788 0.06922234 -0.2274073 0.43763113 -0.020406513 0.72371984 -0.11078179 -0.15769388 0.13163906 -0.02361828 0.4820263 0.054485224 -0.86996174
10169 0.30580217 -0.3968431 -0.44770437 -0.19409148 -0.037974868 0.07267711 -0.6357755 -0.27208936 0.6572287 -0.293388 0.69902295 0.06278538 -0.112435505 -0.09275901 -0.23693147 0.84077704 -0.16906546 -0.2593509 -0.118663885 -0.72550344 -0.16464889 0.3164597 0.24990839 -0.06223331 -0.2903415 -0.7977425 -0.9076117 -0.05661023 -0.08969989 -0.040460657 0.107324734 0.071088694 0.32614416 -0.35761103 0.28989723 0.011993528 -0.005060765 0.43424577 -0.049965546 -0.4368653 0.13424522 0.24460104 0.44459766 0.40614358 0.07403334 0.14011706 -0.016907096 -0.6882162 0.4352265 -0.13716158 -0.42385352 -0.8882436 -0.08279568 -0.1138767 -0.97894734 0.2246463 0.15756819 -0.4104099 0.058321357 0.09306999 0.5733405 0.7890551 -0.04172438 -0.44700456
12350 0.29789165 -0.32871148 -0.6426587 0.35665756 -0.06326665 0.5167734 0.28497535 -0.11604502 1.0092077 -0.41472632 0.55879027 -0.49658906 0.44138196 -0.042745728 0.117128 0.27557048 0.08722336 -0.58816504 -0.5980605 -0.0014743542 0.2550754 0.1398285 0.7584802 -0.14222823 -0.20990142 -0.45260003 -0.087124474 0.13686715 -0.20815875 0.117314376 0.6395855 0.33805135 -0.22037154 0.21083054 0.20173676 0.9270432 -0.16081108 0.53671163 0.18312795 -0.1528766 -0.8865682 -0.0466504 0.093793094 -0.10731466 0.37634587 -0.5395919 -0.12667891 -0.21435764 0.02069818 -0.020659069 -0.070049435 -0.61927813 0.3956291 -1.0467016 -0.82022417 -0.11823243 0.20070934 0.0410994 0.26982266 -0.3513607 -0.10784283 0.6626067 0.6422737 0.41828945
8703 -0.32963824 -0.10468995 -0.028442131 0.08495356 0.62648845 0.07274395 0.15078802 -0.659314 0.62581056 -0.42943263 0.14886366 0.6735384 -0.4758206 -0.89896196 0.11463068 -0.34443253 -0.61170673 0.47105956 0.1880934 0.42491907 -0.64949876 -0.46185482 0.22324978 0.2898753 0.341058 -0.033335403 -0.9071528 -0.0024952935 0.1529019 0.55945337 0.41569927 0.35122147 -0.18929468 -0.0897919 0.4192633 0.11598994 0.17054813 0.35900345 0.4058564 -0.38502824 0.4158446 -0.26460555 0.43390694 0.25225523 0.5458086 0.10592526 0.23377545 0.29262546 1.1990123 -0.13873659 0.44394872 -0.49874362 0.07365753 -0.85247123 -0.52075684 -0.8686023 0.2845593 0.495229 0.07103792 0.7246104 0.20661247 0.3765892 -0.25989208 0.41233167
31353 0.11035568 -0.37781283 0.11157707 -0.36726606 -0.65912753 0.16052313 -0.55514014 -0.017338747 0.36194906 -0.95447475 -0.5613163 -0.31246346 0.47700456 0.82451636 0.92144436 -0.21546425 0.7829758 0.07847135 -0.40677616 -0.8326489 -0.1405586 -1.1533499 0.5200543 -0.20879066 0.45132026 -0.185127 -0.05442272 0.31663468 -0.12307176 0.8017379 0.47733206 0.762233 -0.25810084 0.36593625 -0.043463245 -0.06672318 -0.7656039 0.14042266 -0.46659198 -1.4070431 -0.30985236 0.72395146 0.23681685 -0.5174797 1.0942338 -0.09813268 1.2919532 -0.32773194 0.3654865 0.4925823 0.90985984 0.12314959 -0.12575322 -0.50886977 -0.8588377 0.45196164 0.7073892 0.0031670942 0.3014878 -0.7618095 0.47083762 -0.28702056 0.3485942 0.026204372
15429 0.6104922 0.011734451 -0.095828414 0.11033988 -0.48920304 0.102949746 0.17103039 -0.08549825 0.80563873 -0.3242525 0.4299838 -0.7178693 0.10256047 0.2635639 0.0015696364 0.8309402 0.3917548 -0.49768016 -0.017821182 -0.35619858 -0.7800483 0.08727865 0.50035274 0.2432094 -0.39216638 -0.18811281 -0.55313987 -0.33876258 -0.48251545 -0.06639284 0.7419926 0.371242 -0.18999375 -0.18277708 0.32132068 0.8458171 0.7344641 0.7696302 -0.051947407 0.4468445 -0.57412744 -0.111016504 0.67624426 -0.10372781 -0.00850878 0.06477165 0.38989735 -0.1588748 0.0051890747 -0.46825546 -0.06318953 -0.7701027 0.5332432 -0.6247378 -0.5447836 0.019164085 0.4561787 -0.070044644 0.6524286 0.073792286 -0.26689172 0.9307741 0.4062243 -0.4770897
1481 -0.63827145 0.6038851 0.3123065 -0.87015444 0.28252852 -0.03953886 0.88340074 -0.015519162 0.51981026 -0.58420914 0.50988686 0.12645286 0.15902126 -0.060769696 -1.1842993 0.7823315 0.43846348 0.058025572 -0.4134865 -0.49569306 -0.06765638 0.22128141 0.5692509 0.60956305 0.18509236 -0.115168765 0.42507496 -0.52645403 0.108923666 0.69327265 0.36227643 0.257291 -0.26934806 -0.13810119 0.014948493 -0.78458786 -0.50172025 0.66136837 0.4314778 -0.44769132 -0.33687368 -0.258008 0.37075907 -0.5009441 -0.58436644 0.18904416 0.13507023 -0.045517806 0.12161169 0.06823512 -0.58783615 0.062620915 0.012196315 -0.8895405 0.22018138 -0.69803095 0.88563323 0.08843554 0.38397726 0.2596599 0.38819793 0.40989748 0.43146467 -0.5703086
39890 -0.28447893 -0.6587736 0.35711825 -0.100273736 -0.60490566 -0.32662213 0.20481266 -0.43374902 0.021436395 -0.07261429 0.80685127 0.4590399 0.2715584 0.66214645 0.048543867 -0.46805623 -0.6360043 -0.62107086 0.008646301 0.5300922 -0.04108849 -0.3359129 -0.23119831 -0.17930613 0.082794555 -0.24740411 -0.6275931 -0.63601345 0.61393774 -0.08084496 0.6000746 0.86944 0.54964715 -0.5916259 0.3457512 -0.2643599 0.4569809 -0.75568175 -0.05256678 -0.17665254 -0.80404955 -0.6147676 0.3313803 -0.94572616 0.4497964 0.28418478 -0.14123215 -0.6424051 0.7184971 0.58550733 -0.01918623 -0.28416908 -0.22988884 0.42130437 -0.098604046 -1.5749044 0.4689613 -0.30104247 0.7437678 -0.30281273 0.34944904 0.68051666 -0.080989346 -0.4273292
3191 0.111201055 -0.40409788 0.47442216 -0.5001133 -0.5288892 -0.9779041 -0.801837 -0.5122308 0.50084174 -0.21414873 0.39397392 0.21530041 0.11249551 0.28753555 -0.16248806 0.3761871 -0.33838692 -0.7690383 0.5857287 0.98988926 -0.30168185 -0.73351294 -0.42197365 0.008657632 -0.41077527 -0.31348962 0.25434414 -0.058065724 -0.037210926 0.1565631 0.14103639 0.909678 0.089568794 0.081756 -0.20472896 -0.2215934 0.016967243 -0.19582254 0.8505541 0.13182116 -0.25920257 -0.56002 -0.04329918 -1.0007204 0.32714126 -0.108981214 -0.051297054 -0.050430052 0.8847154 0.79394424 0.28866723 -0.38189182 -0.29522675 0.12595235 -0.82876956 -0.32263657 0.67292327 0.3803065 0.35904282 -0.8418428 0.06475157 0.24100007 -0.016059743 -0.46002483
3220 -0.21032494 0.7773346 0.19567169 -0.04226698 0.29176977 -0.4001291 -0.33323112 -0.22088866 0.6138979 -0.80373114 0.07351357 0.4119757 0.28439647 -0.35337752 0.5448189 -0.6566695 0.32660535 0.37477446 0.50791985 -0.47277302 -0.29246718 0.0624489 0.39537424 -0.29800802 -0.1621361 -0.38479236 0.3864649 -0.23739931 -0.04669265 0.44050086 -0.17955694 0.1130876 0.5720951 -0.85141635 1.365243 -0.7999536 -0.06863733 0.854607 0.39977828 -0.8070412 -0.4562548 0.19703674 -0.3471469 -0.0723108 -0.052789778 0.49098846 0.2831252 -0.61117333 0.30489892 -0.7612863 -0.2267309 -1.0230575 -0.13519163 -0.55618906 -0.81992394 -0.23523444 0.40505967 -0.2921596 0.20569585 -0.31635338 0.30986482 0.46859434 0.41902474 0.06852109
2653 0.87237954 0.11212377 0.2294182 0.2444149 -0.36403322 -0.25844765 -0.019767838 -0.69639 0.47417757 0.18680933 0.24644123 -0.66894954 0.5984044 -0.33890277 0.6796805 0.045957703 -0.37732446 0.6206758 -1.0734031 -0.24166954 -0.58234715 0.37758613 0.28190604 0.40417027 0.27966926 -0.6089297 -0.21015063 -0.5520736 0.49082235 0.7872897 0.6595366 0.70966744 0.21217482 -0.42500016 0.033835337 0.040231936 0.31284928 0.8947461 -0.12775007 -0.43493977 -0.06229225 -0.018295217 0.2584012 -0.7287063 0.09585996 -0.07104446 0.33730486 -0.2828506 -0.36061037 -0.26073483 -0.1729738 0.68290275 -0.19424802 -0.39733732 -0.23225288 -0.064072326 0.19759595 -0.15803461 0.698373 -0.8217294 -0.07650426 0.6109684 0.33709082 0.00757819
85352 0.3118492 -0.34993097 0.41503578 0.6303155 -0.72685796 0.5664178 -0.28506982 0.38287294 -0.012242426 -0.3454202 0.27487102 -0.09061756 -0.12064447 -0.26816154 -0.14233868 0.19173416 -0.09290542 0.15499789 -0.41293436 -0.2041484 -0.08841782 -0.5301749 -0.24909207 -0.017999472 0.2531818 0.5869811 -0.05474214 0.26363072 0.8758758 0.68370736 -0.2856617 0.63460493 0.42373115 -0.7307164 -0.3389725 -0.446447 0.17896248 0.5473249 0.30176777 0.088623755 -0.52831465 -0.039707173 0.15417902 -0.34345034 0.07279951 0.6024418 0.8171981 0.029916193 -0.26861444 0.3922785 0.10518544 -0.5936423 0.8789802 -0.955584 -0.106352285 -0.49392763 -0.5850521 -0.2245867 -0.78975195 0.11486588 -0.5229357 0.20523874 0.08701663 -0.2537263
643221 -0.62316155 0.1639631 -0.47110137 -0.31953079 0.061363705 -0.9228182 -1.2419554 -0.62543 0.22155435 -1.1958185 1.5433685 -0.5914425 -0.1382805 -0.29629508 -0.8702742 -1.4416914 0.26094157 -0.6055394 -0.83266836 -0.24085702 -0.39445156 -0.84269464 0.8471951 0.45353734 0.8332391 0.36113536 -0.16247562 -0.5654284 0.5847691 0.57303876 -0.27399164 -0.1565949 0.10578625 0.12219075 -0.24753076 0.23840918 1.5718364 -0.85569173 -0.32453626 0.39435244 -0.41293928 -0.2809528 0.042899292 -0.2618378 0.58038145 0.9292916 -1.2206857 -0.03821646 0.22491038 0.7312276 0.4649135 -0.024149695 -0.08419989 -0.27848998 -0.8331849 -0.13762541 -0.22895916 0.19947536 0.38903415 -0.21227114 0.45533815 0.39781767 0.23846489 -0.022619145
230879 0.52293587 0.37195382 1.23573 -0.10188793 -1.7037978 -0.68780446 0.24690722 0.3402443 0.22763155 -0.65032715 0.16213046 -1.2733606 -0.2295171 -0.38615832 -0.80332303 -0.60117495 0.28320563 0.19651943 -0.7176849 -0.113525994 -0.05213524 0.12950303 0.021706516 0.71802706 0.35860047 0.42417333 0.25466162 1.3637574 0.31605288 1.0350661 0.01001944 -1.0865364 0.9034058 -0.088957205 0.46971563 -0.24016276 1.3262837 -0.18883885 0.59163994 -0.26272 0.99505067 -0.17210533 0.2871081 -1.3144146 0.18925881 -0.6005596 -0.23260266 -1.2582164 0.9409295 0.16710907 0.21334544 -0.47139177 0.3264446 -0.51111877 -0.41623905 -0.33000833 0.30042487 -0.08127371 0.55030704 -0.25671494 0.46646088 0.6923173 0.91620964 0.21871471
1688 0.032714315 -0.4307983 0.13244005 0.54949194 -0.16977362 0.09797923 -0.34386683 0.50634086 0.049987055 -0.49952033 0.1907598 -0.42371327 -0.16584808 -0.14671777 0.04193276 0.036558304 -0.5811065 0.11190948 -0.654959 0.08049976 -0.14199026 -0.40667334 -0.351988 0.6261966 0.55242264 -0.089385375 0.00073496625 0.317767 0.32150003 0.2017136 0.0050254893 0.0552484 0.85485595 -0.13607101 -0.6126678 -0.95043623 0.46639663 0.4047544 0.024157159 0.27693895 -0.031225352 0.3533753 0.49711272 -0.34589946 0.28692508 0.88438326 0.29546258 0.03142547 -0.811984 -0.24384297 0.5920156 -0.91283697 -0.33216447 -0.805606 0.045221865 -0.2552371 -0.3982656 0.2171744 -0.12508097 0.569465 -0.58032686 0.7586604 0.14548413 -0.90105975
2658 0.12952298 -0.11769413 1.0781925 -0.08307952 -1.6086992 -0.60085005 0.3604984 0.18939658 0.55809385 -0.70078915 0.4293393 -1.1991637 -0.08246642 -0.55802786 -1.0984205 -0.53603053 0.4791523 0.43035185 -0.5519084 -0.1697024 0.090425655 -0.22289835 0.12918587 0.14115253 0.4249532 0.5080943 -6.4644795e-05 1.4699275 0.3553363 1.170585 -0.17398018 -0.6604148 0.33533394 -0.17882495 0.7984869 -0.0104347505 0.9402112 -0.6136735 0.8474639 -0.17715837 0.98294514 -0.51938355 -0.14587224 -1.3662813 0.5503308 -0.7623385 -0.25742248 -1.3248487 0.87013113 0.16604611 0.20426404 0.27488557 0.6019574 -0.41094887 -0.21852493 0.07175153 0.35002372 -0.08743085 0.649824 -0.22221784 0.3239117 0.9383075 0.4935913 0.4735865
23738 0.014023563 0.18116276 0.19235338 0.09470768 0.07654814 0.2628247 0.40262228 0.023453686 0.11273776 -0.155562 0.5926691 0.54978925 0.18635081 -0.5870229 0.5454565 -0.33199808 -0.0047792317 0.057300024 0.15213457 0.27114865 0.20008238 -0.21049486 0.36375618 0.21993476 0.02078961 -0.47015902 0.07610965 0.33481705 -0.06256426 -0.14154933 0.7888571 1.0338039 0.22669138 -0.27333313 0.875888 0.066730194 0.3671027 0.80100346 -0.24604902 -0.10781357 -0.2617715 0.40973958 0.04937212 -0.26713488 0.27268392 0.16825214 0.20841734 -0.51079684 0.33703417 0.32589975 0.028256522 0.5418756 -0.4002164 -0.5587495 -0.56631434 -0.27221832 -0.64602405 0.3341895 0.34987465 -0.34795892 0.5570124 0.5853976 0.94749624 0.252126
10796 -0.29187492 0.19044027 0.0026159016 -0.34533224 -0.0030991633 0.0679074 0.019223157 -0.2619839 -0.018697787 -0.43792364 0.06101257 0.6057153 0.0062117036 0.1560266 0.1744178 0.16575438 -0.50738484 0.18283202 0.07312519 0.7540017 0.045631345 0.119626686 0.92387223 0.37476215 0.9738673 0.16949926 -0.036619443 0.16388239 0.46757156 0.47946694 1.1518134 -0.0581471 0.27487674 -0.22226149 0.1917542 -0.060746286 0.46441108 -0.107897915 -0.29437137 0.008971368 -0.2329677 0.15362613 0.07195315 0.62777245 0.04866953 0.05940871 0.18786512 -0.13744923 0.67701435 0.52391326 -0.54315233 -0.33550552 -0.10912512 -0.8929164 -0.10633224 0.1432298 0.2985893 0.22542977 -0.2973499 0.39816576 0.61640716 0.70935273 0.4813201 0.031405915
39127 0.3860258 0.8936535 -0.06267531 -0.6968153 -0.12088918 -0.21859382 0.07865074 0.4361738 0.55672085 -0.21515208 0.8924828 -0.8391411 0.3473868 -0.70079756 -0.39070728 0.15756977 -0.24836954 0.067235306 0.70166034 -0.45758614 0.23922496 -0.46966374 -0.0044858973 -0.3817436 0.2392098 -0.7214761 -0.41286442 -0.114983745 -0.66781443 0.96719176 0.41357777 -0.1856559 0.33516103 -0.5620373 0.3234758 -0.82891357 -0.12997045 0.20430799 -0.2212656 -0.08832488 1.1078013 0.38918582 0.6918293 0.5133595 0.4462591 0.56948006 1.1602812 -0.5351534 0.5483411 0.36493608 0.07128299 -0.72668684 -0.07901208 -0.5912298 -0.019248368 -0.08271893 0.123432085 -0.51477045 0.39538988 0.26815465 1.4303877 0.07830517 1.0507407 -0.30052176
4804 0.29955766 0.056858465 -0.045592584 0.14859343 0.0888523 0.54417586 -0.26045194 -0.72934806 0.6225384 -1.1418693 0.6039735 -0.7885931 0.34798944 0.55219233 0.11723138 0.24708612 0.15234709 -0.41143528 0.27923784 0.14976081 -0.37658742 0.30568168 0.5602759 0.49179238 -0.3671702 -0.54295003 -0.5405201 0.3381275 0.054169495 -0.21393771 0.34688085 0.36872715 -0.15099297 -0.07239922 -0.4655717 0.3476318 0.04600293 1.0931295 0.39223832 0.14559668 -0.5552078 0.19697341 0.5299704 -0.14954041 0.32843673 -0.32340693 0.53415304 -0.30371168 -0.04106214 -0.052673716 0.21988407 -0.10776257 0.0057730945 -0.56482065 -0.47417548 -0.42891645 -0.15080832 -0.53470385 1.1289513 -0.22918154 -0.46808064 0.41747555 0.37979385 0.021924937
2696 -0.5619727 -0.26249683 0.8516741 -0.81512165 -0.4180467 -0.40489852 0.079882644 -0.70478797 0.80781204 -0.68554944 0.47572154 -0.56208503 -0.6880206 0.38891137 0.16676141 0.10517619 0.9957321 -0.45573854 0.049895003 -0.17682377 -0.5645975 0.018347377 0.25407475 0.4285017 -0.038573146 -0.3963565 0.1244567 1.0376946 1.0056375 0.2672976 -0.47318822 -0.9085615 -0.5155239 -0.7189972 0.34152147 -0.26823318 0.008280824 0.07265185 -0.7284271 -1.564534 0.24527197 0.5099806 0.2899663 -0.92323935 0.6745658 -0.57376033 -0.1528649 -1.0782986 0.1936879 0.90023184 0.91739386 -0.724096 0.6480314 -0.08051893 -0.047537185 -0.7158189 0.011567437 0.3150459 -0.91021234 -0.3083885 -0.24259102 0.8729312 -0.3627604 0.031909708
4335 0.7132153 -0.48492578 0.648165 -0.20013183 0.26725134 -0.13179682 -0.27724087 -0.13329323 -0.48595947 -0.40606254 0.14504053 0.20234956 0.0677862 0.069736905 -0.23811667 -0.75874126 1.1195537 -0.46262175 0.29862422 -0.16546765 -0.13138075 -0.13503051 -0.25340047 0.25490463 0.15294455 -0.571649 0.0093038 -0.6412176 0.7842291 0.036765333 0.28029016 0.83508044 0.082113035 -0.10598909 -0.17227848 0.007399461 -0.007305271 -0.5368472 0.022418555 -0.058262836 0.4166757 0.86260355 -0.12616526 -0.38218656 0.5651124 0.26135886 0.6447091 -0.8822638 -0.39302686 0.39598507 -0.06699337 -0.48490584 -0.2773212 -0.7311515 -0.2892698 0.22505978 -0.4719771 0.3216691 0.49720734 -0.9160524 0.6019651 1.1324191 0.5451746 0.8757885
642894 -0.28747997 0.005799182 -0.36110884 -0.11715167 -0.064771965 -0.4314662 -1.6624806 -0.28451318 0.56704164 -1.6439332 1.6827651 -0.7338849 -0.07082098 -0.07995613 -1.0273691 -1.2599859 0.85183626 -1.0215919 -0.65771985 -0.53953195 -0.55456465 -1.1608192 0.8278784 0.74383837 1.3744843 -0.061478697 -0.39232904 -0.029433697 0.8341501 0.31394455 0.2083673 -0.1684288 0.061832376 0.23540805 0.10150868 0.07651119 1.6625724 -0.7322003 -0.13931957 0.4255853 -0.30349672 -0.16613367 0.105198674 -0.011337271 0.47007576 0.695548 -1.1591647 0.55144304 0.06390472 0.9676239 -0.059673592 -0.013533183 0.13172218 0.26565668 -1.2228372 -0.12884049 -0.43629628 0.23033112 0.21768014 -0.37742877 0.93233055 0.11564177 0.1555345 -0.029178873
6334 0.38069215 -0.41696543 -0.19590928 0.0009016389 -0.08268859 -0.5353045 -0.26226535 -0.28390837 0.03690171 -0.4924776 0.7851388 -0.13575983 0.036253396 -0.38906756 -0.14938347 0.5069483 -0.34021127 -0.2230494 0.16859476 -0.4533125 -0.2739743 0.32563704 0.48734024 -0.08631564 0.5342065 -0.77627313 -0.25319195 -0.22329527 -0.1303304 0.88430387 -0.079792514 0.40335804 0.39170036 0.2461784 0.64670104 -0.28647867 -0.16480447 0.489269 0.21909365 -0.9612882 0.3692368 -0.064960904 0.18481977 0.26773712 -0.118202485 0.0943479 0.107274495 -0.623126 -0.036860745 -0.4269326 -0.5057606 -0.25138175 -0.07840415 -0.4147674 -0.7510257 -0.08072223 0.6135897 -0.81820697 -0.6681423 0.5458687 0.43472973 1.017867 0.041520298 -0.20937777
16819 -0.25499144 0.7011658 0.4421014 0.47694194 0.31947598 -0.6581618 -0.9722949 -0.81371415 0.5250371 -1.2366725 0.9449602 -0.35041413 -0.7712622 -0.16698222 -1.2858107 -0.80670255 -0.25575072 -0.11101588 -1.0295402 -0.20095575 0.3319618 -0.86602116 0.99638927 -0.15857542 0.3063554 -0.14001685 -0.13446312 -0.63925433 0.40606087 0.8451814 -0.40601245 0.07441597 0.083411604 -0.34192613 -0.11796929 -0.5288225 1.2710736 -0.6179214 -0.6581552 0.59667325 -0.62971896 -0.48840344 -0.090995155 0.119216844 0.51592475 0.7630353 -1.2570409 -0.007231111 0.12678936 0.4322943 0.86504537 -0.120212175 -0.0034272687 -0.2598867 -0.5952018 -0.643034 -0.51733214 0.6223661 0.3838048 -0.07516264 -0.18684988 0.53683233 0.37546578 0.21323967
117 -0.61301434 -0.55086666 0.97685915 0.49211675 -0.36968356 0.5100787 0.54822356 -0.24548562 0.18182786 -0.17725001 0.55975455 -0.31337684 -0.06889217 -0.3006991 -0.2768678 0.27996492 0.57245916 0.16761528 0.09146612 0.92205137 0.2153776 0.32422787 -0.13830467 -0.1774478 -0.31794867 -0.11926598 -0.37094498 -0.48569515 0.4999355 -0.00091274414 0.31832978 0.22363459 0.5970244 -0.26587024 -0.5098776 0.15211368 0.83377886 0.043977696 0.26497328 -0.6408615 -0.2729299 0.011460358 0.14565216 -0.0808386 0.78644544 0.09496465 0.77577436 0.34862527 0.39340618 -0.104585305 -0.0300772 -0.013702689 0.20024277 -0.54456705 0.5754909 0.17478397 0.13322544 0.08341079 0.5833526 -0.1309814 0.9452551 0.6987454 0.12479454 -0.57236844
54129 0.15163544 -0.22451016 0.47596803 0.45420578 -0.11385448 -0.096048474 0.44081715 -0.54481936 -0.042041652 -0.81647676 0.6463481 -0.6913083 0.38212234 -0.18080549 0.27793515 0.93744516 -0.53583246 -0.062171653 -0.007368475 0.3207963 0.6724094 -0.80706066 -0.8073643 -0.93579155 0.43077037 0.7181434 0.0787493 0.11751271 0.786215 -0.47521946 0.58587116 0.46735054 0.1161886 -0.18869783 -0.20000999 -0.82536364 0.1123352 0.38142455 -0.11510251 0.14091675 -0.11677181 0.6171874 -0.13426028 -0.4914394 0.62735313 0.09308106 -0.11724343 -0.20813048 -0.3063211 -0.22112694 0.23758662 -0.7085363 0.6309228 -0.3938157 -0.9859311 0.32894972 -0.17005695 -0.44008315 -0.8532278 -0.1491381 -0.7608239 0.67592084 -0.2450335 -0.29467827
210871 0.34421918 -0.28496256 -0.3283365 -0.064090416 -0.2676943 0.03113613 -0.0024236648 -0.12678102 0.22475752 -1.0474606 0.2524747 -0.5564988 0.21354988 -0.60802674 -0.30557021 0.11962891 -0.127282 -0.18119267 -0.5186345 0.11869572 0.76980114 0.3635624 -0.45360115 -0.09641877 0.3297458 0.20017189 0.46643645 0.32327476 0.35296398 -0.02603998 0.17955026 0.5282407 0.3181225 -0.13661067 -0.07435287 -0.47666705 0.35947093 -0.008227428 -0.069805846 0.37828082 -0.16365387 0.047092732 -0.21127462 -0.282463 -0.021386644 0.38058424 0.40742338 -0.6957639 0.0012805674 0.17973424 0.25030148 -0.57899404 0.16043037 -0.40190235 0.39267072 -0.3645165 0.6116089 0.5456659 -0.7931432 0.49853492 -0.52102274 0.63772327 0.020429512 -0.12185282
35922 0.25297895 -0.087814 0.3884518 -0.23119575 0.032895807 0.06579722 0.0006597501 -0.29733384 -0.5877516 -0.5455153 0.3545357 -0.124663725 0.30775243 0.36338723 -0.10249883 -0.7249527 0.7052428 0.06307832 -0.40508324 -0.0063236593 -0.49769053 -0.6514191 -0.003178154 -0.25324172 0.8489409 -0.41365173 -0.32155842 -0.1978994 -0.5456854 0.26000705 0.37479934 0.5259539 0.23127502 -0.097247824 -0.843231 -0.052063666 -0.73114264 -0.68320644 0.14148675 -1.2701296 0.3970657 0.47564396 -0.26298082 -0.49228328 0.18134002 0.3634715 0.5818724 -0.9657815 -0.0017869094 0.48340297 0.29937968 -0.3658203 -0.4921948 -0.26516995 -0.3105749 0.64297795 -0.11665181 0.024521196 0.31320316 -0.8859968 -0.17232971 0.76206017 0.76455414 0.19777924
54131 -0.3975078 0.11484457 -0.22938626 -0.032093607 -0.38525152 0.08639708 -0.7160756 0.00055731554 0.07330915 -0.6452086 0.85559565 -0.1315401 0.8058753 -0.058007114 0.23802651 0.27931988 -0.30824256 0.24966916 -0.18052754 -0.24477258 1.0052186 -0.1677295 -0.9778708 0.3670671 0.11825081 0.22425857 -0.06547177 0.5625613 0.75068754 -0.08887039 -0.0546773 0.3185084 0.19501513 -0.84127504 -0.497941 -0.6652847 -0.12318378 0.10130087 -0.5086573 -0.26082852 -0.13606745 0.07289733 0.5665396 -0.043920085 0.11594365 0.43197545 0.4970206 -0.7232184 -0.15162842 0.24368359 0.90088373 -0.6243224 0.63250226 -0.49756822 0.053573348 -0.17908439 -0.06155523 0.06061706 -0.49310282 -0.113237925 -0.70317596 0.42507166 -0.032205578 0.019250302
34257 -1.4850229 0.23933595 0.36293 0.74006194 -1.5438951 -0.7969006 0.32935232 -0.8557768 0.799298 0.48627043 1.1531413 0.074215725 0.9145811 -1.2093127 0.18434635 0.19720611 0.31393442 -0.80304587 -0.82794917 -0.7318952 0.4150449 -0.3637685 -0.07164296 0.8535339 0.91476256 -1.5727223 -0.57442605 -0.713953 -0.5087198 0.23230642 -0.021755897 -0.24188533 0.37848443 0.21651661 -0.21111347 -0.26138005 0.49251327 0.38137984 -1.4811966 0.32216397 -0.059712388 0.7130549 1.2165898 0.10880951 0.28394485 0.1323697 0.8522638 -0.10572258 0.61474425 0.18658528 -0.29092526 -0.68501246 -0.51175565 -1.0624601 -0.7670676 -0.6429547 -1.0246389 -0.1519467 -0.86947435 -0.859381 -0.35978243 -0.47631544 0.8256943 0.07289978
5348 -0.14065856 0.2693404 0.5394674 -0.70905 -0.8060948 -0.3552244 0.14160089 -0.5711791 1.0214846 -0.47142905 0.35612872 -0.39901015 -0.75659823 0.35664156 0.32963347 0.3515617 1.060476 -0.5331888 0.2055034 0.112988755 -0.64982647 0.19921994 0.32244593 0.3429813 0.14035806 -0.43016675 0.010917676 1.2439054 1.2172598 -0.16013938 -0.6743935 -1.0041382 -0.5359201 -0.49236795 0.3323764 0.09451629 -0.25318557 0.3633749 -0.32566306 -1.2730464 0.58792555 0.30751133 0.35611814 -1.2834294 0.30693775 -0.16015868 -0.35910758 -1.077778 0.19053826 0.8970772 0.73432237 -0.8616107 0.42216185 -0.28246942 -0.17336287 -0.7434964 -0.28638944 0.1196836 -0.6197906 -0.24295945 -0.2478018 1.0769547 -0.07283562 -0.20237935
3218 0.34086812 -0.18264145 0.37566462 -0.24135377 -0.6938225 -0.37982455 0.03925906 0.4919645 0.19867809 -0.69686353 0.9013195 -0.01943081 0.090199575 -0.42876482 -0.30032364 0.44549587 -0.3850606 0.25028002 0.42367744 -0.09060023 -0.14295393 -0.17038214 0.19975631 0.19035022 0.31784615 -0.6752317 -0.8391427 0.27900183 -0.8129899 0.031712845 0.37487528 0.21727468 -0.20011579 -0.6362614 0.2597733 -0.38717553 0.064216785 0.4726521 -0.421738 -0.13402331 0.15550639 0.65864366 -0.2690292 0.15611698 0.07099619 1.2142609 0.022141531 -0.048965827 0.75848794 -0.19600753 -0.53121895 0.03559899 0.48336038 -0.11963091 0.07157703 -0.5488193 -0.6901788 0.7276365 0.042181745 0.38271186 0.5912646 0.99919754 0.9548144 0.30241567
35061 -0.099053614 -0.18166213 -0.6696032 -0.09822742 -1.0363729 -0.028724283 0.16950439 -0.09004495 -0.6960827 -0.6400497 0.46108422 -0.30520755 -0.34676853 -0.3599607 -0.626678 0.5060644 0.12102583 -0.27368605 -0.35167652 0.087004855 -0.061220217 0.27229252 -0.49690917 0.005828306 0.3047999 0.4502676 0.11298931 0.1644525 0.5757876 0.44634578 -0.31618154 0.5465883 0.6254426 -0.76975334 -0.15224625 0.1481886 -0.10434063 0.45248628 -0.37392217 0.7250068 -0.68582267 0.071670346 -0.35065007 -0.1916851 0.31215948 0.54895145 0.28674036 -0.28107786 0.17484395 -0.3717613 0.6945802 -0.40681034 -0.027942272 -0.15220827 -0.33442247 -0.12407923 0.2870566 0.21438923 -0.8947434 0.23302507 -0.22675842 0.43422562 0.28297815 -0.11444118
89547 0.50017285 1.1010385 0.5446691 0.16715276 -0.36352992 0.60125643 0.39291802 -0.1882674 1.0103906 -0.34077322 0.5933328 -0.091124445 -0.19308172 -0.06980761 0.33227643 0.7105903 -0.073318586 -0.5366691 0.18536209 0.41643372 -0.27088904 -0.122164555 0.085043386 0.13309422 0.30161318 -0.102758884 -0.25226325 -0.41082186 0.14244495 0.23485926 -0.30609363 0.7483697 0.6988076 -0.301742 0.16223033 0.6026479 0.68643254 0.8053134 -0.174746 0.26512012 -1.0152823 0.4906529 0.10542247 -0.17236926 0.2678969 -0.42542717 0.5023027 0.13882461 0.21693817 -0.48382667 -0.14140844 -0.26680988 -0.23571503 0.16948582 0.16425861 0.53011984 0.593441 -0.44749105 0.82690305 0.5299003 -0.1856282 1.0772547 -0.20493385 -0.56581974
35797 0.4106932 0.70583695 -0.59408736 0.31581408 -0.45525497 -0.47568747 0.13626215 -0.09329069 0.6377975 -0.0340517 -0.43121263 0.34414712 0.107555225 0.087782785 0.11111935 0.06455198 -0.036107343 -0.7324291 0.062414538 -0.12808456 0.11688183 0.5213796 -0.7764136 0.03748963 0.87636787 0.21345724 0.22794773 0.42005804 0.696563 0.7682592 -0.34367418 0.17242348 -0.16151547 -0.44563812 0.8690021 -0.3494189 0.12484612 0.12186561 0.07623071 -0.26660112 0.19708015 0.84286654 0.6549426 -0.35847223 0.31357735 0.19740854 -0.028986871 0.3380768 0.39285484 0.32692474 0.121251285 -0.50323576 0.2010488 -0.766251 -0.30591634 -0.03685958 -0.5928945 0.47217643 0.42297643 -0.7389264 0.09930115 0.6044054 -0.45418477 0.69202316
18777 0.47370023 -0.35179657 0.6008828 -0.65433145 -0.073424675 -0.018685354 -0.18954688 -0.0976985 0.8201714 -0.46032432 0.6787818 0.87666965 0.41591322 -0.34567946 -0.69202584 0.0018186617 0.39343908 0.28457326 -0.05573514 0.68722075 0.08071656 -0.31119603 -0.078441225 -0.5220699 0.24602176 -1.1086221 0.2046046 0.052695334 0.4232556 -0.05348243 0.638504 0.48838988 -0.051682256 0.23694336 -0.50065386 0.49681753 0.14070503 -0.1537533 0.250492 0.007506252 -0.7218858 0.31599128 -0.15938768 -0.21029249 0.85247546 0.44870797 0.22126585 -0.19826876 0.18800859 -0.17355543 -0.23369355 -0.14367558 -0.3884969 -0.4900139 0.37364355 -0.107980445 -0.8886599 0.24462669 0.43775207 -0.6230291 0.6140074 1.0806981 -0.38581875 0.6733621
28350 -1.0660033 0.45277926 0.26125374 -0.23148938 0.04560501 0.29966456 0.1070678 -0.457554 1.0634263 -0.7444538 0.6680687 0.6423674 -0.3601343 0.10201894 0.30190805 0.12699927 0.47160792 -0.43998852 -0.020527966 0.629934 -0.015030049 0.39890757 -0.1478782 -0.45420027 0.0013685107 0.8803038 -0.5187896 -0.47974497 0.2306334 0.21752165 -0.5158903 -0.030857313 0.4768276 0.018813644 -0.6204355 0.25965855 0.49568534 -0.097729996 0.30983448 -0.097619556 0.0035346036 0.56235087 -0.13192087 -0.21961524 0.7851683 -0.013959813 0.3904011 0.40885788 -0.06171184 -0.2651966 0.16530202 -0.29342932 0.11707068 -0.5911048 0.3840663 0.0046053645 0.6799483 0.080343336 -0.13255282 -0.22846197 0.7768942 0.8964753 0.50996953 -0.18789491
38205 0.4032348 -0.49629697 -0.5905497 -0.328113 -0.526576 -0.38762236 0.48976216 -0.07980352 0.487127 -0.48654208 0.2476441 -0.34376055 0.15349649 -0.25901672 0.30555862 0.15639223 -0.09702475 -0.30181184 -0.17773244 0.6723862 0.6318963 -0.1047458 -0.49941608 -0.6756185 0.74135345 0.23009993 0.27996156 -0.20532188 0.397512 -0.06919941 0.7813754 0.66999865 0.27826267 -0.015186843 -0.030712828 -0.60355854 0.34320024 -0.21419027 -0.072215624 0.59233576 -0.00042295607 0.4453131 0.08173198 0.03297645 0.5939778 0.2840962 -0.042173624 -0.7205147 -0.035092022 -0.26160216 0.01275234 -0.41066203 0.26375654 -0.7364232 0.31262466 -0.009055528 0.5464064 0.17680055 -0.47977346 0.24108249 -0.65655005 0.514349 0.15057234 -0.9263302
10177 0.3805464 -0.7438265 -0.39947158 0.092153065 0.2226824 0.1032368 -0.45021862 -0.44233382 0.7888862 -0.7545108 0.88722074 -0.7270821 0.29613245 0.38835752 0.046142165 0.64851654 0.11199943 -0.49595323 -0.024224576 -0.43007538 -0.49623755 0.2697961 0.8416907 0.40931445 -0.91046166 -0.11450356 -0.45929134 0.22065072 -0.004861961 -0.19115306 0.56685156 0.19774075 -0.03470436 -0.13609305 0.0012662389 0.6336718 -0.032204773 0.7654857 0.07707515 -0.10275305 -0.45090845 -0.16863248 0.6020109 -0.040728375 0.2310563 -0.26759398 0.3015817 -0.08204522 0.2691822 -0.2417616 -0.008707027 -0.38156393 0.3351561 -0.6321113 -1.1231614 -0.45802152 0.09449535 -0.35453054 1.0533984 0.02536271 -0.54456985 0.9708706 0.86063457 -0.27128997
65074 -0.4183054 -0.056842588 0.031318244 -0.28413814 -0.9575124 0.42534313 0.28050572 -0.74711674 0.011341091 0.09340421 2.444929 -0.71631205 -0.018420238 0.7740607 -0.2799359 0.34493998 -0.109930255 -0.96404713 0.8318402 0.5772809 -0.26517254 -0.63813376 -0.093575925 -0.44706866 1.2191045 0.2494086 -0.55068624 -0.2281751 -0.91714364 0.41926914 0.20415683 -0.12857708 0.10134115 0.44844803 0.32461885 -1.8741109 0.95452553 -0.29715502 0.3215822 0.0575471 -0.29151565 0.106691904 0.76904017 -0.71752584 0.524423 -0.37404278 -0.5183563 -1.441942 0.24554142 -0.54927737 1.1649745 -0.41521883 -0.36935365 -0.41406435 -0.8692016 -1.3151684 -0.5080021 0.11813412 1.311417 -0.92064905 0.23579398 -0.33772174 -0.6031444 -0.26677743
17476 0.00033248911 -0.61490226 0.5627095 -0.15972513 -1.1115474 0.4639236 0.81076723 -0.9253827 0.33175355 -0.8571885 -0.06075577 0.02781086 0.16296206 -0.31576154 0.2344574 0.02149663 0.42043802 0.13500337 -0.48913342 1.0296324 0.7177057 -0.07713166 0.107307635 -0.71635926 -0.33991656 -0.1396024 -0.48028058 0.020975482 0.23316358 -0.30980897 0.4292041 0.60528255 0.7546614 0.0014263974 -0.72579277 -0.018193228 0.29879275 -0.17505498 -0.019410018 -0.56514597 0.2947348 0.7830437 0.4028191 -0.037751313 0.80429465 0.37384933 -0.0375424 0.43923044 0.11368933 -0.053060107 -0.42423108 -0.63176185 -0.10231516 -0.32419455 0.113485724 0.08755341 0.043445732 0.48840645 0.28394285 0.21471433 0.8049767 0.16781445 -0.13130827 -0.42507306
2654 0.9092686 0.4202319 0.18900709 0.14713521 -0.8196742 -1.0710492 -0.36254957 -0.80661196 0.41759172 -0.044439595 0.87346715 -0.59005535 -0.14268823 -1.2855928 0.9821252 -0.1660603 -0.33255583 0.023181895 -0.47242463 0.049947992 -0.6884818 0.039367992 0.08132684 -0.0015729956 -0.27419668 -0.16184272 0.06871737 -0.39987537 0.23629065 0.51077163 0.6923087 0.72337204 0.33962038 -0.540453 0.3264262 0.21942462 1.0048884 0.8958526 -0.23748054 -0.49270302 0.27718407 -0.007130316 0.38745108 -0.28598228 -0.29395637 0.38603 0.5928919 -0.089571685 0.21240571 0.5572568 -0.0844641 0.51934123 -0.20745903 -0.39671668 -0.08394223 -0.26690626 -0.10910834 -0.03520871 0.22066356 -1.0916271 0.2889016 0.56267387 0.1384326 0.23817143
5086 0.18483673 -0.55908245 0.5528219 -1.0521703 -0.47313094 -1.3498201 -0.9179611 -0.6184664 0.81327343 -0.17830147 0.51269567 0.13098702 0.3070454 -0.21889114 0.39197788 -0.32440725 0.1511303 -0.80777407 0.7991781 1.4140177 -0.8343086 -1.1130618 0.07435021 0.33414662 -0.1495397 -0.8841293 -0.059801683 -0.26016834 -0.27744254 0.20753878 -0.40193442 0.8780564 0.397559 0.3866947 -0.5820811 -0.75804126 0.21420781 0.11887966 0.8940397 1.0840842 -0.60854846 -0.7740811 0.48935494 -1.2972322 0.4067056 -0.35793614 0.29533252 -0.57496876 0.7682168 0.64571345 0.1520734 -0.13393846 -0.6229276 -0.07484454 -0.5347551 0.5301082 0.5873934 1.0341285 0.096936375 -0.1713171 0.16721477 0.3183915 0.23899077 -0.08336213
153063 -1.0838888 -0.12121471 -0.121300854 0.4247413 0.34663135 -0.44482252 -0.025306253 -0.28111345 0.65328765 -1.9969807 0.24278778 -0.29790732 -0.052096125 0.08785525 0.497793 -0.7256559 0.5235161 -0.4640584 -0.49109063 0.9700459 -0.08142993 -1.6169115 -0.013074471 0.22264302 0.03661572 -0.77160037 -0.31492174 0.19247554 -0.54868376 1.3009204 -1.7907497 0.084742 0.31348473 -0.23153025 0.020700816 -0.7552371 1.1358526 0.7544928 -0.4669555 1.502376 -1.0709734 -0.62657297 -0.31727824 -0.66625035 0.5375605 -0.504062 0.98106474 -1.3338473 0.6017429 -0.20101474 -0.0877682 0.49392882 0.16113697 0.20829435 -0.68588233 0.6524265 -0.14295182 1.0399578 0.8514928 -0.89764464 0.34408313 1.0892315 -0.7790607 0.032427397
22229 -0.16396677 -0.027874332 -0.6021902 -0.3294237 -1.8896631 -0.3667379 0.2919128 0.11680099 -0.098027594 -1.144902 0.3567511 0.10666555 -0.3289233 -0.74171835 -0.28271776 0.21182697 -0.53202266 -0.20322412 -0.13606727 0.45823583 0.14846122 -0.3360637 -0.6196016 0.2704481 0.35736758 0.15949856 -0.66262275 0.19271731 0.7416592 0.12357721 0.14123474 -0.04045002 0.9576558 -0.49365714 -0.058364965 -0.3870199 0.03928973 -0.03039626 -0.5679898 0.5207101 -0.5560835 0.6097242 0.35677156 -0.040877167 0.2875338 0.7685546 0.017293554 -0.8334599 -0.7620707 0.24858071 0.9224293 -0.35470808 0.51672333 0.20216359 -0.8296409 0.6528747 0.3022997 0.3769849 -0.787581 0.09161532 -0.9937369 0.52282894 0.025067773 0.32325125
31489 0.36896688 0.117907174 -0.11268759 1.4011773 -0.31147683 -0.3325355 0.03822775 -1.2322391 1.1985637 -0.97588784 -0.067663714 0.115676485 -0.5913763 -1.1231321 0.22000633 0.33266613 0.011137768 0.72322273 0.055261068 1.0327212 -0.9904435 0.30862454 -0.2698555 0.4585018 0.6975294 -1.0553538 0.40908152 -1.5005106 -0.6832497 0.8593027 -0.15932156 -1.179951 -0.093090504 -0.22528744 0.05104498 -0.25879678 -1.1720822 0.046287008 -0.986691 -0.17706819 -0.7697044 0.30315048 0.51018214 -1.6954286 0.1782892 0.74825567 -0.103543624 -0.12376502 1.35594 0.82964516 1.0252153 -0.3237942 0.35664132 -0.62223244 0.3792739 0.906824 0.041284863 0.74954593 -0.5169971 -0.28223747 -0.034723416 0.24970423 0.4351768 -0.7456697
6910 -0.56816673 -0.6544617 -0.23949398 1.3706939 -0.2727263 -0.8467679 -0.5113414 -0.30276814 0.26712698 -1.4336182 -0.8519769 -0.6634423 0.14325896 0.02775746 -0.33104303 0.31120506 0.67611814 -0.36556053 0.27454117 0.23727375 -0.2934045 0.84163123 -0.63794786 0.3669582 0.6146686 -0.015506361 0.3994171 -0.8959571 -0.84699255 0.7424678 -0.54637855 0.036684696 0.47489807 0.46894908 -0.22577037 0.8274479 -0.10631587 0.2418085 -0.42524356 -0.69520086 -0.618099 -0.09136147 0.03871268 -0.6972631 0.017078033 0.9579137 -0.1858539 -0.08885171 0.78257793 0.9261239 0.4999555 -0.21435158 0.15556969 -1.0730394 -0.8161698 0.5922817 -0.38668367 1.104505 0.7770944 -0.37310606 0.6395943 1.1203812 -0.52793884 0.15787622
10183 -0.5476496 0.59741604 0.38987258 -0.48697746 0.08397804 0.6172571 1.4630041 -1.3330386 -0.10295545 -0.92246413 -0.315306 0.363706 0.9818305 -0.28034553 -0.5670304 0.3261148 -0.19304894 -0.3675618 0.036036555 0.08453376 -0.6190789 -0.24859102 0.36268017 0.72002095 0.8609113 -0.045854848 -0.036712125 0.047239784 0.4091595 0.072138466 0.447864 0.6103895 -0.13539132 0.07667624 -0.4763528 -0.34575787 0.7112449 -0.23484103 -0.45599267 0.011956354 -0.15341406 0.13168782 -0.111476585 0.5094457 -0.30393758 0.35112548 0.13824043 0.27725148 0.2130686 -0.33547756 -0.5514637 -0.4851925 0.30155754 -0.954549 -0.5575353 -0.51329285 0.73724973 0.33171326 -0.045524828 -0.07575394 0.542483 0.6327423 -0.14991325 0.36440682
6913 -0.7716297 -0.37798545 -0.9771365 0.1418239 -0.045109402 0.40287212 -0.5384662 -0.45665276 0.2751488 -0.745705 0.03619598 -0.7518987 -0.71651435 -0.18032625 -0.39162332 -0.67192405 0.09167425 -0.9912087 0.20175847 -0.22949812 -0.8542665 0.020886125 -0.2860651 0.3609138 0.17327517 0.2912016 0.5803596 -1.1499904 0.19486448 -0.32544515 -0.7075232 0.27668476 0.35739514 -0.29466662 0.14386155 -0.26846117 0.50653243 0.30937842 -0.37539664 -0.38422465 -0.016467985 0.23266897 -0.64403695 -0.8261271 0.6094049 0.66276526 0.23500815 0.04237632 -0.5323768 1.0487897 0.18018961 -0.4542598 -1.0434511 -0.95976776 -0.52690405 -0.43894744 -0.7714387 1.0524486 1.196456 -0.95821065 0.17993195 0.6367116 -0.07299901 0.56557184
1956 -0.51616067 -0.8331031 -0.0015615094 -0.4187002 0.19131981 -0.034380563 0.16597663 0.41654816 0.1783372 -0.37026116 0.29255414 -0.23211424 0.21823654 -1.0617626 0.32454634 0.5163145 -0.55546767 0.7663897 -0.98920614 0.21177374 -0.48444876 -0.43670538 -0.3280067 -0.06256953 0.5449779 0.20746218 -0.42501146 -0.06821594 0.20144816 -0.0066345427 -0.17847925 0.38326055 0.8594612 0.06502265 0.70092505 -0.9319109 -0.13553204 -0.123048134 -0.2764154 0.5190864 0.63595736 -0.1929669 0.25933942 -0.24512686 -0.5373604 0.115873136 0.0065985 0.094664805 -0.564554 -0.22563666 0.15490846 -0.52833813 0.5499514 -0.54431736 -0.5440328 -0.2602399 0.33312717 0.06558123 0.29832843 -0.3684014 0.052636378 0.88441265 -0.028981471 0.452846
46491 0.88443154 -0.35003233 -0.67378044 -0.43334863 0.15619563 -0.9007651 0.5225084 -0.5663641 0.51845986 -0.5185085 0.6204462 0.22091459 -0.30748376 -0.94849783 0.41053343 0.49894398 0.018215334 -0.35384056 -0.41620827 -0.7099861 -0.7430853 -0.13439366 -0.34334794 0.5240515 0.6086227 -0.17979309 -0.6445739 0.627353 0.094961144 -0.13642403 -0.2110054 -0.0642245 0.6280002 -0.83530366 0.4009504 0.010052529 0.0335624 0.14833862 -0.058241982 -0.81004083 0.040014558 0.08865173 0.55267006 0.025656613 0.5128675 0.8867751 0.19429342 0.59773314 1.0809441 -1.3864753 -0.09296921 0.048228502 -0.087166324 -0.29785693 -0.08902005 -0.07313509 -0.46572748 0.5711162 -0.36995155 -1.0206587 0.052805718 0.5644689 1.0033325 -0.0881778
287787 0.24040602 -0.1885671 -0.22043625 -0.096517 -0.41684735 -0.014650759 0.16723286 0.5749487 0.44220462 -0.76728165 0.40354097 -0.30582213 0.06482535 -0.30524096 -0.20389932 -0.011677237 0.072065294 0.07939864 -0.9370551 -0.29313305 -0.24191292 -0.4009306 -0.5485369 0.13414526 0.9226948 -0.17386414 0.45683348 0.5150039 0.5413387 0.18776451 -0.1712198 0.9293052 0.33040974 0.3240364 -0.35236302 -0.7183256 0.10788209 0.40507394 -0.024036057 -0.2484086 0.41515094 0.25224057 0.540452 0.09386651 -0.46443233 -0.1531639 0.19917221 0.16714224 -0.27558357 0.20900775 0.3666707 -0.13386598 0.48071685 -0.9847877 -0.4923335 -0.11746648 -0.029796502 -0.053521384 -0.33459744 0.7228673 -0.7205513 0.819523 0.5600658 -0.63831335
6209 -0.9286966 0.23344813 -0.16752183 0.23841201 -0.055929523 -0.64402014 -0.13668108 -0.031672616 0.3320689 -0.040544506 0.28499407 -0.1974474 0.36473966 -0.17869397 -0.222456 0.4841098 0.82431436 -0.67498255 -0.27202642 0.7956329 0.41694525 -0.366514 -0.7911624 0.8261779 -0.2520457 0.063920274 -0.23226684 -0.3223579 0.29435164 1.0215563 -0.47247216 0.07678219 0.017107356 0.8170064 -0.24805468 0.18098773 0.2790695 0.5806985 0.35293096 0.004559845 0.28377658 1.0598363 -0.23458523 -0.30260867 1.076055 -0.048981037 0.5405929 0.24092728 -0.054759346 0.29220778 0.15336783 -0.017558252 0.07626891 -0.44000605 0.36062878 -0.48177615 1.0475526 0.2766324 0.28389335 0.3657749 0.100803986 0.5127768 0.40342325 -0.4324789
20601 0.1574516 -0.44105113 -0.26509845 0.46853015 -0.14105691 0.160458 0.00051279564 -0.11923317 0.80118644 -0.66595614 1.169973 -0.7333929 0.82346475 -0.0151088545 0.17610773 0.006954872 0.12561072 -1.0364577 0.052281313 0.7854824 -0.35696843 0.40234345 0.81486356 0.4987216 -0.5972273 -0.1761282 -0.62824875 -0.2443966 0.06445374 0.63366336 0.94184923 -0.05860199 0.24170446 0.1729622 -0.2757265 0.5839141 -0.6311452 0.5865242 0.8092462 -0.06372834 -0.60222715 0.2795866 0.3842873 -0.041955534 0.1764686 -0.8468177 0.04301065 -0.41361716 0.19387741 -0.2899712 0.010096565 -0.73043954 1.3542671 -1.0458877 -1.1099787 0.1708685 -0.2995574 -0.40146783 0.15764366 -0.55293083 -0.93339336 0.7826458 1.1640451 0.3383382
79809 0.5851135 0.3556381 0.6112131 -0.7072931 -0.2747442 -0.2626277 -0.8167992 0.06412039 0.71765053 0.14148122 0.18997858 0.45349225 -0.28858262 -0.09248894 -0.14788264 0.21345381 0.6241605 0.12446467 0.5356587 1.3779056 -0.2686004 -0.6434471 0.42447826 0.17412536 0.32880798 -0.9080371 0.23405772 0.4963064 -0.3991449 0.041523874 -0.19307947 0.9152284 0.3714635 0.35233754 0.401541 -0.3047718 0.16680185 -0.052600272 0.5198748 0.9487029 -0.24179836 -0.55689776 1.2735981 0.06322251 1.032583 -0.5705537 0.3343404 0.006352516 0.23726457 0.55547065 0.42992318 0.05920874 0.46324944 -0.6724242 -0.4615511 0.2223356 0.3012415 0.4273522 0.071031295 -0.95357764 0.63846976 0.8168512 0.38752806 0.62299156
84021 0.17741245 -0.8300892 0.29110622 0.47769874 -0.18616328 0.22321247 0.30254117 0.41238418 0.09346288 -0.48554662 0.9027775 -0.13599789 -0.12178603 -0.34045014 0.16308291 0.00890281 -0.6802023 0.18942776 -0.121554814 -0.11856745 -0.032912098 -0.18018483 -0.5658751 0.698896 0.7222729 -0.35600358 0.4096191 0.30150974 0.058949687 0.6315248 0.40502653 0.5583645 1.0080265 0.07271456 -0.09252012 -0.6353408 0.6036056 0.83738005 -0.1913474 0.15369412 0.06748292 0.28168276 -0.020435186 -0.2949941 -0.08041892 0.051538605 -0.17020729 0.18718572 -0.2083751 0.14227417 0.3826907 -0.49242592 -0.10077378 -0.5025418 -0.344259 -0.30775777 0.12254582 0.43929365 -0.37100023 0.8592061 -0.3888137 0.13960324 0.46266788 -0.12766661
36140 0.7043579 0.68878007 0.21159025 -0.050667573 -0.09489393 0.21765254 -0.261356 -0.50989145 0.09606533 -0.001452401 0.2400702 0.21146217 0.13483626 -0.88046145 0.27579546 0.09634475 0.02111518 -0.92835855 -0.15901445 0.14992629 0.13181467 0.46863446 0.028669493 0.6549436 0.13334398 -0.098115884 0.15668349 0.40396184 -0.21031249 0.7474035 0.18868522 0.09163662 0.32170168 -0.5053245 1.0352051 0.019614631 0.31616673 0.55723864 0.2145515 -0.68993616 -0.3146959 0.8856181 0.1490744 0.4496327 0.4001733 0.2066162 -0.43878052 -0.39505252 0.020862138 -0.15124309 0.42566767 -0.013443413 -0.012978108 -0.29538435 -0.096076705 -0.5285892 -0.1328973 0.5916928 0.21244858 -0.96831703 -0.22822468 0.74894303 0.43861464 0.51351553
108047 0.16114485 0.14215174 0.024747767 0.107605785 -0.63439167 -0.29148358 0.5199744 -0.45669103 -0.0029877631 -1.042578 0.7114624 -0.3646415 0.4853161 -0.04901972 0.5009617 0.6803223 -0.8576715 -0.06860435 0.016202325 0.40963292 0.67029077 -0.817089 -0.93581265 -0.7563162 0.72786146 0.32877022 -0.010781454 -0.16449888 0.80692446 -0.048238218 0.8282985 0.2961365 0.119820915 -0.098794065 0.16994137 -0.49091974 -0.043470144 0.34607428 0.12759623 0.031677 0.0155296475 0.73471874 0.06277456 -0.42709658 0.5974964 -0.043421365 -0.6763299 -0.2886308 -0.20596923 -0.10907292 -0.12962988 -0.21860614 0.8189428 -0.06236892 -0.97604823 0.5109524 0.14647403 -0.34826848 -0.6247214 0.5776873 -0.78319645 0.777751 0.23431857 -0.6300585
10798 -0.22133651 0.7253412 -0.12273418 -0.37598825 0.07059057 0.6013212 0.7755859 -0.76920813 -0.052533846 -0.5992703 0.08070586 0.21190067 0.11802994 -0.41107455 -0.12881362 0.056997832 -0.89825886 0.26546153 -0.2314123 0.55972546 -0.5116854 -0.5647357 0.48088053 0.7288352 0.42244983 -0.13563946 -0.9695488 0.47230628 0.66647565 0.5931929 0.3869728 0.26487535 -0.5356518 -0.12177598 -0.2467217 0.027215786 -0.2837489 -0.101982616 -0.11945134 -0.06334395 0.13433637 0.042294435 0.065951645 0.57751286 0.49294475 -0.19064248 -0.0060055256 0.24943306 0.4893603 -0.16025269 -0.2922282 -0.48145738 0.34931073 -0.923411 -0.2888749 -0.17918044 0.5892946 0.8722772 0.2368374 0.008177747 0.3099639 0.41727418 -0.07488063 -0.33048478
503883 0.5935351 0.20642695 -0.6099824 0.37494716 -0.6649901 0.37259746 0.18918952 0.42095718 0.39733738 -1.4419802 0.4100381 -0.020946855 0.22521888 0.038433727 -0.14903119 -0.23389792 0.063844055 0.25454742 -1.0588036 -0.3080464 -0.37153086 -0.64145976 -0.64467365 -0.06545736 0.5361655 0.35792723 0.5273094 0.7546417 0.6633232 -0.30635768 -0.0025609992 -0.10484469 0.26999873 0.18725644 -0.09959797 -1.2006357 -0.0063234237 0.21787637 0.09557478 0.14515683 0.08396731 0.68471676 0.95462406 -0.028248692 0.0064628515 0.3058887 0.15746205 0.77894604 -0.10390737 0.25700593 0.53851396 -0.12400192 0.06727366 -1.3300833 -0.25426108 -0.31619173 0.37691265 0.12165454 -0.18270282 0.3619533 -0.47802082 0.9207611 0.2497191 -0.75675166
3233 0.58502215 0.8407916 -0.31763136 0.25503325 -0.22061752 -0.18689793 -0.47990483 -0.36493543 0.5844376 -0.56262743 0.36147073 -0.3175494 -0.2026024 -0.522195 -0.49369746 0.42838186 -1.0603676 -0.0822154 0.24480692 0.6074167 -0.84133404 0.31416106 -0.10426809 0.053575024 -0.45771584 -0.31742716 0.077943124 0.6740322 0.64841783 0.84006894 -0.19363347 0.5628373 -0.032263678 -0.08840122 0.13470179 -0.5241259 0.35090882 0.846578 -0.24812457 -0.67970294 -0.242226 0.42792255 -0.4559348 0.34936243 0.025179975 -0.1591087 0.058007624 -0.56778085 0.2305362 -0.009155355 -0.2731821 -0.5593347 -0.18453085 -0.094830014 -0.19834532 0.017657802 0.7902344 0.10543444 1.2538236 -0.6760378 0.37402767 0.54147094 0.109015085 -0.22973461
6163 -0.8782055 -0.37697628 0.4252329 0.15857251 0.37773943 0.570813 -0.024753647 -0.6059202 0.75480527 -0.34657925 0.9277782 0.48468503 -0.30156296 -0.058967628 -0.23944397 0.73816234 0.33277667 -0.09502662 -0.11842558 0.10727194 0.46695524 0.15899034 -0.19639318 -0.3508596 -0.019692568 -0.058912266 -0.25433847 -0.44975063 0.9271319 0.45377278 0.8994442 -0.39606476 0.38659117 -0.088423505 -0.22104307 -0.26487958 0.8880256 0.14662045 -0.2994822 -0.019780738 0.21106622 0.41947994 -0.2310127 -0.5224002 0.5075065 0.6316228 0.44701353 -0.3803833 0.41986433 -0.3767051 0.22706468 0.06057813 -0.059440877 -0.7232274 0.3294815 0.7225249 0.4931031 -0.08406171 0.12915021 0.2787286 0.2594176 0.18239151 0.6951475 0.0722776
202639 0.40169328 -0.30649734 1.0109597 0.16187213 0.66020346 -0.22782555 -0.34908146 -0.7034566 0.21646227 -0.76335156 0.7968024 0.24915025 -0.13329564 0.36378482 0.12806466 0.09351782 0.77911574 -0.15492097 -0.46646267 1.0196218 0.121081635 0.011770373 -0.33450148 0.1868424 0.38734654 0.21553034 0.75340915 -0.32878205 -0.26384467 0.3506338 -0.25817168 0.093925916 -0.5911548 -0.3027207 0.2981548 0.01840239 -0.82700217 0.08632965 -0.28984985 0.11512148 0.3519888 0.10747559 1.0616617 0.4432888 0.9113512 0.08260495 0.38932186 -0.03407112 -0.27940232 0.13156775 0.78515345 0.062280238 0.1303605 -0.3510221 -0.2926612 -0.044558592 -0.18100174 -0.35162872 -0.2139995 -0.064492375 0.42904004 0.44304523 0.28948084 0.026531575
12330 -0.14671655 0.56695867 0.24162966 -0.23469678 -0.7190031 0.13003126 -0.432225 -0.5564869 0.79895645 0.7827756 -0.33216774 -0.7131724 -0.6928353 -0.5282386 0.38176146 -0.41256928 -0.17333876 -0.043619882 -0.22136435 0.07798877 -0.9637948 -1.0521816 -0.55147487 0.24294004 -0.8128799 0.43411565 0.59992486 -0.016666202 -0.3906643 0.483423 0.4935856 0.2721595 0.2457619 0.05533858 0.0847997 0.45384488 -0.46151173 -0.22344454 0.04936695 0.38228807 0.3298459 1.1889496 0.733782 -0.6030299 0.7447167 0.8314098 0.004814198 -0.796387 0.3243796 1.1535121 -0.587651 -0.49080878 0.07590228 -1.566785 0.29930645 0.42706445 -0.5044055 -0.18541095 0.08784235 -1.1287376 0.029440878 2.132195 0.75913 0.73126847
41714 0.11280885 -0.07112619 -0.13852164 -0.40315193 -0.2824231 0.19004619 0.0012259223 -0.2505638 0.3633045 -0.43449602 -0.22689404 -0.63203555 -0.24465619 -0.67858595 -0.56717956 -0.16148902 0.17005132 0.001173472 -1.0464156 0.5331609 0.4159207 -0.5144983 -0.7529789 -0.24381986 0.43511826 0.39245835 0.454253 0.43791458 -0.028015817 -0.12521823 0.3219863 0.59372425 1.0122534 -0.07290771 -0.5078006 -0.42990398 -0.05213696 0.59769124 0.058622133 0.19587977 -0.63417834 0.06208813 0.102168456 0.017664447 0.59779936 0.57674855 0.20928733 -0.8607912 -0.12546141 0.05628478 0.49900782 -0.23150454 -0.6277152 -0.9147915 -0.62635493 0.10249238 0.42566997 -0.45057732 -0.9528061 0.3078303 -0.34851468 0.24268582 -0.40847528 -0.17188565
3243 0.28248885 0.048836425 0.27196327 -0.081279635 -0.09362942 0.0127155725 -0.37150264 -0.49905965 -0.0034148502 -0.25054848 -0.6982561 -0.11774976 0.7579244 0.32686767 0.3727685 0.80252445 -0.43112898 0.0023321486 -0.18037657 0.8006027 -0.025787305 0.37214088 0.49944234 0.16895172 0.9078331 -0.16352929 -0.014381312 -0.056578506 0.3928518 0.14941761 0.034457568 -0.30081716 0.63037264 -0.19302927 0.055646077 -0.95065665 0.38409624 0.16913919 -0.05508446 -0.3735113 -0.022742888 0.7266047 0.031127995 0.012927769 0.7298209 -0.18932806 0.2782785 -0.3900759 0.34696707 0.12174155 -0.54476714 0.7637992 -0.24395616 -0.27762318 -0.15319507 -0.034559682 0.43927646 -0.19836144 0.4713577 -0.077121295 0.18783294 1.2200611 1.2413442 0.47536317
10531 -0.1869807 -0.041148655 0.06344914 -0.25937793 -0.6744291 0.37194863 -0.3655601 0.33507052 0.79680634 -1.0786586 -1.0118226 -0.5800837 0.5631073 0.91389966 0.92426795 -0.6914872 0.10272144 0.13036141 0.20254524 -1.2295288 -0.11502833 -0.7647568 0.3620423 -0.5030668 0.29212523 -0.29549354 -0.1379963 0.19361286 0.38624778 0.77047396 0.5432629 -0.07724446 0.35341904 -0.54594713 0.3306948 -0.55061865 -0.13446093 0.58720565 -0.23161508 -1.4160235 -0.9699811 0.2108474 0.14514904 -0.569162 0.9282573 -0.15156195 1.1333634 -0.07472719 0.30072185 0.14159526 0.49494213 -0.7408504 -0.40020677 -0.37031257 -0.8639677 0.24121448 1.2662153 -0.18738325 0.8386473 -1.0440406 0.58887553 -0.19392508 0.50651157 -0.16716972
57119 0.35520887 -0.7515133 -0.786605 -0.014900513 -0.8155951 -0.24376583 0.7501053 -0.18515927 0.59779304 -0.6566714 0.04726257 -0.33110285 0.2615685 -0.12045595 0.90331686 -0.2681862 0.15301487 -0.18816257 0.17332636 0.51102287 0.8247421 -0.14477637 -0.8705475 -0.64375424 1.0166333 0.3482969 0.166021 -0.3270547 0.489911 0.0324194 0.28185895 0.009447955 0.413077 0.32421353 -0.2367473 -0.7897822 0.29441005 -0.08431942 0.05192051 0.32729986 0.1972706 0.17238256 0.29457262 0.13600276 0.8062343 0.6453889 0.01632849 -0.39593405 -0.040316686 0.21936303 0.030473081 -0.07601103 0.05168393 -1.6022178 0.3359889 -0.12179436 1.1412452 0.2701897 0.16743106 0.057515766 -0.42732978 0.25327373 0.5165602 -1.3009553
56115 -0.40095475 -0.49876457 -0.16741759 0.062839895 -0.10800033 0.90641546 0.106487855 0.36939454 0.9607442 -0.18136476 0.18876456 0.17367353 0.7506694 -0.61732864 -0.056742117 -0.27096254 -0.23428905 -0.8067533 -0.038558234 -0.44035086 0.31901646 0.0036610127 0.376263 0.49217656 0.36922368 -0.46743673 -0.31936187 0.4585681 0.681688 0.13280153 -0.31119627 1.1253668 0.8053501 -0.20070623 -0.25883293 -0.8693474 -0.004517668 0.8829662 -0.69866306 0.7380878 0.40382177 -0.36801875 0.27823827 -0.21593574 0.1756448 0.6088537 -0.22178929 -0.15992336 0.12139416 0.19681235 0.37591565 -0.616228 -0.01754983 -0.23570493 0.3607471 0.0563499 0.466443 -0.25485367 -0.020626185 -0.11183047 0.3066243 0.9064216 -0.3301063 -1.266293
103515 0.044280294 -0.23827459 -0.10908436 0.3131056 -0.19486378 -0.051843833 -0.3363789 0.09962979 -0.20188262 -0.5061025 0.9390495 -0.17778368 0.77494353 -0.30353513 0.18430977 0.4226963 -0.22500859 0.15287651 0.0825873 -0.012550074 0.9764366 -0.55274093 -0.7659352 0.32749197 0.20920572 -0.24550517 0.033174474 0.6925196 1.3097456 0.40279007 0.14679839 0.34815738 0.58628845 -0.004264901 -0.16297813 -0.68220615 -0.5998254 -0.15161584 -0.48397404 0.26879403 -0.35151264 0.3853181 0.513386 -0.42728338 0.25836632 0.2899887 0.2691773 -0.06401601 -0.20940666 0.5556527 0.36546913 -0.21125935 0.6323248 -0.63869333 -0.36259606 -0.21037063 0.07143407 -0.20481552 0.07171247 0.32038307 -1.0394044 0.23647994 0.31929308 -0.32765064
28287 -0.95866597 0.14320323 -0.56730926 0.10981082 0.13814174 0.6064802 -0.004663319 -0.08406549 1.2762463 -0.1232057 0.45847803 0.2948011 -0.5235451 -0.38146242 -0.46316126 -0.3972918 0.41607612 -0.10257711 -0.42345327 0.29064488 0.34421554 -0.13481712 -0.06464693 -0.01026922 1.3405982 0.23461325 -0.06428636 -0.2006055 0.90205044 0.06397899 0.362434 0.81332904 0.31097183 -0.31039402 0.0595347 0.0047575044 -0.13444349 0.13979127 -0.025361503 -0.013943602 0.518326 -0.078798614 0.30012894 -0.043585382 -0.18225308 0.17258197 0.8121221 -0.12777215 -0.05534989 -0.14126763 0.3252211 -0.21973285 0.104601316 -0.09609879 0.06392153 0.19863425 0.7797188 -0.53711313 -0.106568135 -0.32398167 -0.03127134 0.48347571 0.2622076 -0.33844215
6184 -0.5269703 -0.37641227 0.004206521 0.032356143 0.21943241 -0.05764208 -0.28092316 -0.7634794 0.35769767 -0.23043396 0.46390697 0.10154316 -0.369396 0.3091744 -0.03654094 0.23121656 0.69592935 -0.38857618 0.14393058 0.25611934 0.103176795 0.28329816 -0.16297589 -0.17508955 1.0983963 0.33504683 -0.2610768 0.4611435 0.21907233 0.86107 0.26666856 -0.1817779 0.12058955 -0.38182747 0.11387803 0.26961654 0.08520086 -0.23912734 0.5170134 -0.5235027 0.05353453 0.07697536 -0.17694047 0.522876 0.22695406 0.37545162 0.1235515 0.13420518 0.22449352 0.26800582 -0.03161576 -0.4228246 0.07498572 0.025041586 0.28327653 0.30737028 0.050259966 0.095765844 0.18064709 -0.113182224 -0.116189994 0.47290194 0.56773 -0.28270966
16008 0.11043859 -0.6030047 0.4178774 -0.62654144 -0.52264154 -0.5867078 -0.5372737 -0.89320445 0.29457316 -0.62986475 1.2711409 0.5220464 0.1635174 0.635158 -0.12547429 -0.037854847 -0.25340033 -0.8847606 0.1348113 0.64471596 0.7024919 -0.6518473 -0.18731043 -0.5824634 0.3977682 -0.33521646 -0.06614179 -0.03973676 -0.5135295 -0.061920855 -0.33095035 0.61929107 0.17245483 -0.10597371 -0.4692913 0.21729338 -0.5638156 -0.6511044 0.8321192 -0.13906498 -0.5944656 -1.3160167 0.16894582 -0.6727161 0.010088667 0.26016912 -0.14763854 -0.4524431 0.7318864 0.81017697 0.3178282 0.0797064 -0.8388305 0.022849137 -0.54841 -0.7784295 0.8004016 0.37617028 0.41294786 -0.6749411 0.121943824 0.76597935 0.37921974 -0.20471121
1959 -0.30433705 -1.3230417 0.42689705 -1.0338844 0.03796349 -0.6507106 0.065009415 0.0098182885 -0.18090795 -0.7907244 0.029534686 -0.5250853 -0.25746548 -1.9583071 0.6260954 0.60366964 -0.39798152 -0.431441 -1.0828117 0.18657081 0.16413645 -0.5135929 0.14979307 0.11450454 1.1177944 -0.32028365 0.005750091 -0.27930775 -0.15025994 0.37023294 -0.022313563 0.36205754 0.5287732 -0.074899144 0.13946688 -0.67749864 -0.17172013 -0.17548533 1.4726858 0.18700545 0.5936037 0.58516043 0.29002765 0.29036582 0.7319997 0.60827404 -0.17905149 -0.06820768 -0.10878575 0.4318805 0.13654198 -0.82685506 0.3543172 -0.6822182 0.1732069 -0.37115914 0.52055854 -0.08062642 0.90874976 -0.30490404 0.08012244 -0.18695454 -1.0421482 0.65586615
45189 0.89890975 1.0664395 0.74328756 0.108782135 -0.2514729 0.03790082 0.25826067 -0.5781299 0.83367753 -0.8007831 0.57187986 -0.5533041 -0.05822304 0.13687141 0.40017784 0.39559218 -0.61076707 -0.63707364 0.21662807 0.607907 -0.43298474 -0.034345612 0.39503375 0.31582424 0.24859327 -0.3274633 -0.4106376 0.32843423 0.46392822 0.14076349 -0.008920379 1.0059208 0.4574521 -0.3139343 0.018893784 0.015154104 0.50918585 1.0902855 -0.048270743 -0.21413992 -0.9721594 0.7968244 0.46001267 0.510718 0.30090228 -0.59449303 0.23565148 -0.37705177 0.431312 -0.5076939 -0.25104725 -0.12036542 -0.6419305 -0.20356786 0.051155604 0.06187938 0.21681266 -0.6976697 1.5376688 0.15887581 -0.30892512 0.75725794 -0.14603913 0.09481779
45605 -0.14524668 0.11470278 -0.171088 -0.5694389 -0.7554753 -0.1599582 0.10428985 -0.5561413 -0.40352938 -0.62485546 -0.39923418 -0.53730315 -0.65293056 -0.2888897 -0.7039424 0.6907565 0.66394645 0.0012712188 -0.68286973 0.100300156 0.047289047 -0.19999751 -0.5559375 -0.49799293 0.36044836 0.4127467 0.19030553 0.37200704 0.21815479 0.54788107 -0.48224878 0.6708931 0.5574008 -0.7997482 -0.0858669 0.09454815 -0.12554003 0.8808689 0.22937544 0.58871293 -1.0537057 -0.29022327 0.08687731 -0.22402366 0.9689093 0.5783789 0.51113427 -0.78226733 -0.1544274 -0.45124194 0.57264555 -0.1804787 -0.6875549 -0.6235633 -0.2700996 -0.11193851 -0.0066068275 -0.2968665 -1.1323888 0.24712712 -0.37108427 0.4097868 0.25027898 0.07711041
240321 0.33523747 -0.20229425 0.5999316 0.5473125 -0.005163997 0.09804808 -0.483406 -1.0813131 0.83728033 -0.55052465 0.27476594 -0.059458695 -0.703021 0.20385604 0.3287038 -0.65218186 0.38938767 -1.0869753 -0.67866635 0.8349452 -0.36142182 0.31577018 -0.86458695 0.42539176 0.23793449 -0.0054215677 1.0746484 -0.9061864 0.17543072 -0.20414138 0.03863781 0.013241315 -0.24677347 -0.8291974 -0.35139328 -0.85411257 -0.94160813 -0.4412469 -0.6333364 -0.41830996 0.44961774 0.6440518 0.060101897 -0.27813601 0.78197443 0.120528206 0.33552402 -0.6263862 0.06603371 0.09442995 0.07631165 -0.3503642 -0.05305899 -0.21935256 -0.2233518 -0.27643177 -0.28970602 0.2005309 0.5106362 -0.056828324 0.29901716 0.4890927 0.30823874 0.5939106
14062 0.84387237 -0.29263943 0.5751225 0.46016216 -0.26744714 0.06725914 0.24558647 0.93541133 0.3701749 -0.7200725 1.191679 -0.27982315 -0.110771686 0.62427187 -0.2571133 -0.29954806 0.1854011 -0.01738527 -0.6738081 -0.3373489 -0.09723669 -0.630455 -0.4309219 0.37327215 0.41223994 0.42238235 0.163892 0.758918 0.7723544 -0.08698628 -0.4166798 0.38835007 0.86792254 -0.4100924 -0.32162118 -0.5951602 -0.002222865 0.57740414 -0.17725968 -0.062070865 0.015446154 0.48746002 0.0020296262 -0.26043892 0.022696598 0.88603 0.73356307 0.5320161 -0.08433243 0.07122508 0.25659442 -0.83365947 0.6371842 -1.3160385 -0.06544938 -0.5547898 -0.2493404 -0.34980124 -0.2845778 0.41642067 -0.36430568 0.59465915 -0.10450159 -0.43025833
8594 -0.6120086 -0.38333833 0.31550857 0.06913538 0.04348914 -1.723644 -1.0224875 0.89022523 0.080082245 -0.7256408 0.4835449 -0.2972573 -0.8172502 -0.492585 0.8896683 1.1590887 0.8980123 1.0867329 -0.25722012 -1.0172274 0.07388012 -1.3099581 0.04740137 -0.8202935 -0.33429828 0.2520389 -0.61729723 -1.1696472 0.8696107 -0.61574996 -0.6678924 0.18817753 -0.46134454 -1.1979858 -1.548279 -0.51174957 0.12632859 0.35011846 -0.49754077 0.5369662 -1.3546942 0.90891683 0.22272076 0.3236495 0.6802926 0.038450193 -0.332388 0.39257693 1.3861508 0.61626846 1.0806605 -0.2497634 -0.3145002 -1.3730961 -1.2527636 -0.6073024 1.7371407 -0.5351188 0.9462134 0.21158576 0.6803793 1.7895237 0.3518811 -0.18571037
27627 0.06253799 -0.15794487 0.96822983 0.34494522 0.2477705 -0.8101705 -0.20816448 -0.73955846 -0.278565 -0.4358789 0.587852 -0.16002092 0.043072928 0.5028525 -0.23152187 -0.04123045 0.40492815 -0.13994835 -0.070619896 -0.15144852 -1.0138508 0.4780828 -0.30277026 0.5518092 0.12992491 -0.29582685 -1.196393 -0.114650644 0.6582586 -0.1275813 0.33116382 0.79695284 -0.27820963 -0.14858603 0.5726232 -0.20019752 -0.0027223616 -0.38418752 -0.22975416 0.07643966 -0.39519206 0.62344325 -0.09566431 0.17158738 1.0532136 -0.7241953 0.45705637 -0.20569815 0.04445012 0.009693964 0.10318252 -0.8302707 0.4927315 -1.7783867 0.3035727 0.63097715 0.7878797 0.77470255 -0.20551135 -0.2996887 0.55591285 -0.014217004 -0.2913744 -0.46223953
32083 -0.064539716 0.53934723 -0.5822699 -0.23692186 -0.5988757 0.19481128 0.22919813 -0.547021 -0.36487234 -0.34582707 0.025819194 -0.14068699 -0.78077495 -0.76021606 -0.3439031 0.8127083 0.9325671 -0.014118474 -0.2428357 0.25127 -0.16524321 0.6127358 -0.3989639 -0.25870398 0.5300986 -0.48018268 -0.3938706 0.09807722 0.102232456 0.2876087 -0.7798755 0.57474524 0.48830485 -1.3215669 0.3123272 0.31350407 -0.32655478 0.43892834 -0.54243696 0.26197478 -0.8400692 0.122535825 -0.34778658 -0.5195715 0.27703196 0.19314869 0.51898843 -0.28061295 -0.28942037 -0.09164441 0.17788106 -0.27968708 -0.24140954 0.099870265 -0.62509805 -0.012546435 0.056117095 -0.35818017 -0.287888 0.50095797 0.043152474 0.56924796 0.5156879 0.48198822
40151 0.17413352 -0.2757771 0.44728637 0.28244594 0.08571896 -0.37186727 0.07215588 -0.5042983 -0.14099781 -0.9441553 0.43778598 0.019966459 0.10619942 -0.19074397 -0.81482947 0.086201064 -0.21032895 -0.49678734 0.39598557 -0.3307758 -0.8207032 0.5204025 0.34373313 -0.088636205 0.4603798 -1.5324975 -0.16128491 0.09474677 -0.4133766 0.842397 0.22057688 0.6646531 -0.16502954 0.11618555 0.75613844 -0.1206887 -0.27897865 -0.2615916 -0.84533453 -0.3594219 0.6274376 0.5372414 0.45347464 -0.48529115 0.23936702 0.41200593 0.3708311 -0.19410844 -0.06421335 0.3252081 -0.07908206 -0.5118656 0.021548878 -0.45893154 -0.38565314 0.3566576 0.8693205 -0.54180807 -0.5992209 1.1098783 0.3413715 0.6278414 0.17323649 -0.0706012
77758 0.02187396 0.42328978 0.78703475 -0.37277305 0.28340417 -0.49538028 0.25955138 -0.8029345 0.67656004 0.20808321 -0.1992606 0.20564821 -0.48037386 0.35419568 -0.3303833 0.29310784 -0.42426613 -0.104684904 -0.008331187 -0.59408635 -0.24502228 -0.2627893 0.34555206 0.16350645 0.7043832 -0.029180309 0.33724138 -0.09896408 0.18574448 0.07407302 0.40177235 -0.111663364 0.44117808 -0.9595772 -0.17430598 0.05494404 -0.16748199 0.18285416 -0.48326105 0.09179697 -0.34095523 0.040502407 1.1171246 0.042153414 0.94823885 0.006011211 0.09269088 -0.6528151 0.14577544 0.9651776 -0.45372525 -0.41964465 0.22296509 0.45929495 -0.1107942 -0.38982943 0.19491959 0.15170921 -0.22082812 -0.21425135 0.20180015 0.5507858 0.44416025 -0.67080414
20534 -0.892386 -0.7123376 0.4240498 0.23586364 0.3394257 0.36653832 -0.079624034 -0.7580105 0.5331986 -0.76258135 0.59867066 0.8653508 -0.631665 -0.40515834 -0.35169464 0.36342257 -0.19367877 -0.7962014 -0.30221927 -0.22033714 0.15686654 0.28646997 -0.054531045 -0.29099452 0.18072386 -0.23861502 -0.31446022 -0.6006119 0.6632702 0.6238154 0.558013 -0.39602643 0.41548395 -0.13780546 -0.29020444 -0.28588083 0.4920908 0.5561323 0.07521757 -0.01563826 0.07130676 0.3811671 -0.2089706 -0.7307585 0.7190802 0.24888363 0.68275493 -0.3136328 0.2396181 -0.51821965 0.37988767 0.5479728 0.77082956 -0.42299667 0.5276287 0.19777696 0.68834275 -0.36668852 -0.055222724 0.19277193 0.34566912 0.33170265 0.44355917 -0.043761358
6935 -0.13851346 0.3788524 -0.4551927 0.28373885 -0.9568141 -0.15632832 0.4834286 -0.29986793 0.5406624 -0.19431157 0.29723227 -0.45287508 0.665035 -1.1019919 -0.4372025 -0.63282156 0.56684196 0.31148157 0.42127696 0.6566662 -0.57144123 0.27957633 -0.5135753 -0.14442559 0.6332988 -0.57844394 -0.6939834 -0.2790903 -0.32346535 -0.2054305 0.93016106 0.3478421 0.17932694 -0.17008957 0.9218126 -0.6065336 -0.09970611 1.0659941 -0.5125593 -0.6409003 -0.093905166 -0.037608832 -0.099273995 0.8003732 0.19239123 -0.10276606 -0.76223606 -0.30488977 0.0637078 -0.113583975 -0.37339988 0.02555866 1.0031731 -1.1270914 -0.7893476 -0.47519633 -0.10568736 0.34401873 0.53232837 -0.51921254 0.26774243 0.32192376 0.77396846 0.46234348
205196 0.322285 -0.4705209 0.13658336 0.8183026 -1.1360617 -1.0362773 1.0527647 -1.2332821 0.17170152 -1.2831688 0.11966298 -0.38317037 -1.1427473 -0.6236328 -0.3807693 0.22723424 -0.5678315 -0.76041096 1.1843097 -1.1679277 -0.46262002 -0.864889 -0.40093473 0.3154081 1.235124 -0.028797088 1.1365552 -0.03591929 0.94006324 -0.20628884 0.17660663 -0.34324864 0.60323346 0.41481707 -0.28995255 -0.54241586 -0.71380544 0.4573594 1.0566487 -0.223253 -1.1883438 0.38250053 0.6160354 0.5857978 1.3963215 0.72901314 0.5417796 0.082549326 -0.5038175 0.24176963 -0.4022462 -0.75080454 -0.45434463 -0.23254085 -0.38143474 0.5142598 -0.19588755 -0.09759779 0.50045073 -0.4043237 -0.5536684 0.7461986 -0.4378749 1.1525729
123825 0.096578985 -0.3467227 -0.16310646 0.34168434 -0.6177433 0.19310996 -0.2548733 -0.6751354 0.33189312 0.010931155 0.15328805 -0.21541233 -0.79038113 -0.54060763 -0.03196023 -0.2200232 0.9509587 -0.039710365 -0.7410718 0.25622815 -0.46355647 0.2984976 -0.3930223 -0.17856184 0.2824099 -0.25975955 0.96947366 0.595457 -0.09657038 0.93879986 0.092763156 -0.19161852 -0.37579104 -0.077915266 -0.6657088 -0.8120693 -0.26052642 -0.34042686 -0.6360677 -0.31422347 -0.29424143 -0.515373 0.17226498 0.0878678 0.71108544 -0.11858036 0.05704991 0.088171065 0.49759778 0.16310269 -0.4580033 -1.3880622 -0.027336009 0.20456825 -0.4943808 -0.014508044 -0.2400751 0.14180183 0.5350984 0.21872862 -0.51819575 1.1076181 0.65483314 0.2805035
6151 -1.0156045 0.006585859 -0.15600394 -0.3910142 -0.15184887 0.040389687 0.2395014 -0.40795663 0.94955194 -0.3620891 0.8869192 0.069444366 -0.36692727 -0.07957262 -0.13807158 -0.22124608 0.5357956 -0.29537958 -0.5814993 0.5364932 -0.09832291 -0.23053296 -0.14686888 -0.21256255 1.0010165 0.36516014 -0.032285158 0.33507028 0.773331 0.11998119 0.35474062 0.09896715 0.6152134 -0.0069666035 0.06526678 0.5242653 0.03427561 -0.2355948 0.16657571 -0.14328955 0.10774834 0.45348468 0.20946604 0.2334542 0.48362935 0.22584653 0.7047004 -0.30882812 -0.1854856 0.008877616 6.537309e-05 -0.21594414 0.4245636 -0.025040861 0.80115986 0.21116212 0.9739719 0.007186186 -0.2660689 0.09834998 0.49956694 0.49052924 0.54555464 -0.094935715
645016 0.032470632 0.56249654 1.3342456 1.3605249 0.088853136 -0.57266134 -0.40778458 -1.4470674 0.27473995 0.84238076 1.8041373 0.10943764 -0.20038803 -0.97760296 -0.46602303 -1.087684 0.7558901 0.9964648 -0.05783184 -0.8459393 1.1701132 -1.543143 0.3778328 -0.10529111 0.3153677 -1.1728703 -0.40822175 -1.2116052 0.20992231 -0.9725443 -0.8883694 1.1988946 1.5538708 0.56041414 -0.93560606 -1.8653878 0.15067863 0.46336314 0.34640747 0.9713682 -1.9119062 0.022611763 0.07675176 0.93002856 1.4102544 1.4231304 -1.2142339 0.5330503 0.9427879 0.5733667 0.07441384 -0.8368145 1.1429107 -0.6173052 0.1712491 -0.6393425 0.28400978 0.93098027 0.50743276 -1.4256784 -0.1242833 1.1493738 1.1470807 -1.055251
6767 0.11769082 0.30985337 -0.15529765 -0.6819 -0.6345272 -0.50617486 -0.076508686 0.2763495 -0.009726615 -0.85806996 0.57810533 0.51327205 -0.19134101 -0.7090159 -0.18146847 0.4597009 0.43230957 -0.17496943 0.38648927 -0.8072775 -0.113079764 0.08999535 0.5839546 0.3572699 0.4720273 -0.7553193 -0.09278412 -0.38510093 -0.3544539 0.16376637 0.43435588 0.22188547 0.31205484 0.16107628 0.7664001 -0.46614382 -0.008644 0.75923896 0.62313795 -0.9354938 -0.3242652 -0.14634788 0.0029382044 -0.44814247 -0.08328385 0.24558644 0.39262366 0.13078697 0.37230495 -0.83058256 -0.27990398 0.20379135 0.7727624 -0.18078767 -0.24989425 -0.39904112 -0.18528727 -0.16941784 0.054583665 0.45917127 -0.009611285 1.0678827 0.70112735 0.027999587
3085 -0.20621787 0.7156098 -0.54932725 -0.023793167 -0.20790568 0.7566738 0.33019742 -0.36660352 -0.4519299 -1.132596 0.121200375 -0.9065355 0.18017997 -0.7514441 -0.35044634 1.4076431 0.54597694 0.08076651 0.020695617 0.10522794 -0.37612483 -1.0597035 0.30530876 0.7145318 0.5315293 0.039401945 -0.814716 -0.49207574 -0.44171906 1.1805947 0.5201964 9.818584e-05 -0.067589246 -0.4906651 0.095434316 -0.6777855 -0.47922504 -0.5826145 0.53100705 0.47556984 -0.6602866 0.8050524 -0.31317392 -0.4296004 -0.8460188 0.36525065 0.18670185 -0.45526165 -0.29439786 0.21459375 -0.49749586 -0.31175834 0.23143718 -0.36685345 -0.0026887837 -0.29525962 0.8360041 0.035824575 0.16252393 -0.054939706 0.68365085 0.96320224 -0.44592103 0.01365788
30895 0.06440182 0.06990326 0.13607356 0.10488296 -7.3989686e-05 0.02958313 -0.28035384 -0.3951812 -0.3406331 0.052833643 -0.031720884 0.24340038 0.886189 0.3584898 0.009569578 0.6008016 -0.2731528 -0.14322655 0.25825185 0.750075 -0.11025412 0.15744478 0.57248986 0.0783924 1.1702374 -0.19844119 -0.30177778 0.59250927 0.3188324 -0.33173034 0.3877659 -0.43888187 0.7439751 -0.76932704 0.002777246 -0.3322101 0.13181241 0.2790298 0.28233483 -0.32054228 -0.2801334 0.38184658 0.06835137 0.44653404 0.38973784 -0.032266058 0.3588464 -0.32561013 0.90655375 0.6489566 -0.21711801 0.43868953 -0.067867704 -0.59259975 -0.5200548 0.1455495 0.045373417 0.14935704 0.13506046 0.14741689 0.37250522 1.0668646 0.71967685 0.073771596
5064 -0.08570113 1.3943381 0.6068121 -0.122816555 0.71816504 1.0571643 0.33921963 -1.2333837 0.79209805 -0.6929395 0.8800871 -0.69793785 0.04139828 -0.92893374 -0.89013946 2.0126953 0.68685704 -0.18164077 0.5188615 -0.27548602 -0.22701167 -0.34079918 -0.16354834 0.898178 0.9812485 0.43560547 -0.106848046 -0.33281815 -0.5684043 0.42448878 0.2161052 0.2777103 -0.639536 -0.6596665 -1.2302278 -0.9856612 0.449226 0.55460465 1.5284728 -0.06359717 -0.19181529 0.6495038 0.10017421 -0.6936916 -0.5207807 0.016689448 -1.2471082 -0.4921197 0.16709527 0.48305526 -0.87885106 -0.7399233 -0.8764687 -0.9165256 -0.28482723 -1.161765 0.5089588 0.33522755 0.10771476 0.6078102 0.439266 0.9062154 -0.59846544 0.2624253
1997 0.14619336 0.9994544 0.06320417 -0.079192154 0.0685077 -0.6496669 -0.5631638 -0.1353563 0.6334439 -0.11994775 0.2257444 -0.24449603 -0.38764146 -0.44479135 -0.81544465 0.19575034 -1.1732574 -0.26284757 0.2737997 0.9241953 -0.6603712 0.1450993 -0.0062683844 -0.3532477 0.13906987 0.22154047 0.2028436 0.4355896 0.028463583 0.10927573 -0.08073094 0.9242129 0.2360307 -0.3269721 0.24047203 0.057298608 -0.37746575 1.144737 -0.16256809 -0.46184528 -0.026516754 0.8380276 0.20612074 -0.6732466 0.015855119 0.5144704 -0.030788675 -0.119900875 0.13486306 0.74715644 -0.15591842 -0.465683 0.09526645 0.22375537 -0.80198056 -0.46961194 0.45119786 0.775959 0.77122766 -0.85742086 0.51601756 -0.021141157 0.3773749 -0.5228053
15889 -0.34753472 0.26146764 -0.1840696 -0.6775444 -0.09983732 -0.525204 0.47365853 -0.061245278 -0.5936487 -0.870757 0.23671529 -0.40393317 0.22246704 -0.7958052 -0.99507755 1.1249683 0.33938542 -0.109720476 0.60906446 -0.4963809 -0.48140132 -0.63355607 0.47255403 0.87849045 0.74554145 0.39738944 -0.79849565 -0.9070656 -0.5566266 1.0380104 0.41720998 -0.396098 0.43852773 -0.3547587 -0.43111256 -1.1448945 -0.9541896 -0.41717643 0.88830817 -0.42035264 -1.6990254 0.8370532 0.29611194 -0.6573434 -0.9576517 -0.21474166 1.184748 -0.17787635 -0.3326951 1.0472635 -1.2244667 -0.29116473 0.65918756 -0.85352737 -0.4432238 -0.42988682 0.65235543 0.15848087 0.2077549 -0.26051763 0.9121217 0.66768354 -0.027570708 0.06626474
6125 0.439699 -0.033149406 -0.31932616 0.46685815 -0.019133177 0.06022153 -0.17782527 -0.4035538 0.99449366 -0.024568163 0.5116115 -0.6488763 0.5934138 -0.35190862 -0.09395111 0.26836234 0.38098308 -0.02168767 -0.6689303 -0.11404564 -0.35624227 0.25359824 0.7285881 0.27173537 -0.21335909 -0.9764318 -0.3450547 -0.09107507 -0.040941812 0.082106635 0.9305453 0.107630365 -0.16308178 -0.8261175 0.0037241264 0.56884617 0.26138163 0.49424902 0.42584765 0.008419894 -0.7149102 -0.10305054 0.010445132 -0.7195955 0.15538058 -0.31930277 -0.049811956 -0.041990157 -0.8446515 -0.27107048 0.31017599 0.09647702 0.52456504 -1.0318328 -0.89331025 0.12132215 0.59352833 -0.18184997 1.0090911 -1.0234468 -0.34397316 0.59629065 0.7158273 0.51050055
6818 0.29580316 -0.44280913 0.97927296 -0.5822587 -0.28859136 -0.47518605 0.2703418 0.05416898 -0.6217759 -1.2486413 0.56794584 0.12027456 -0.25313362 0.50904423 -0.79665047 -0.6366418 0.123218216 0.0817314 0.08041727 0.47120085 -0.048536304 -0.14071864 -0.24504268 0.059464976 0.87572014 0.21624418 -0.43241972 -0.8130944 0.026139095 0.6615848 0.19783615 0.59870535 0.057918794 -0.21325834 -0.92520875 0.25482434 -0.7229158 -0.121914685 -0.06660358 -1.0471413 0.25471506 0.07908981 0.23777968 -0.3293598 0.015432501 0.020345567 0.24536997 -0.74878114 0.16465387 0.0012644805 0.1483311 -0.21527754 -0.83795136 -0.12419825 -0.4816451 0.7684237 -0.07142236 0.50106364 0.42341158 -1.697985 -0.11966996 0.50965333 0.50887626 0.094394565
11335 -0.5910585 -0.7477213 0.020968366 -0.38399476 -0.4101835 -0.22900766 0.17704457 -0.07764632 -0.042098835 -0.97180444 1.4220445 -0.08495797 0.031636905 -0.5027923 0.14902379 0.09837565 -1.2690613 0.62592787 0.7768656 0.04545235 -0.03063345 0.2590284 0.46487445 1.2192873 0.54661614 -0.26304227 -0.09969597 0.93012536 -1.0643697 0.7493302 0.8641883 0.5938978 0.30387944 -0.86719894 0.564153 0.32701474 0.11721817 0.65385467 -0.8028836 -0.01869442 -0.44284207 0.6966624 0.08837366 -0.7310471 0.7338653 0.24593605 -0.15150678 -0.6621575 -0.16864897 0.14780484 -0.51096976 -0.06933104 0.20378537 -0.5686205 0.21304303 -1.4308041 -0.5928408 0.3352219 -0.35103306 0.29758584 0.9286865 0.07338372 0.60957855 0.05931778
77438 -0.77230734 -0.6718641 0.76215786 0.51232606 0.008783656 1.0614197 -0.27916142 0.27514267 0.05023393 -1.1222445 0.6684268 0.18758842 -0.0027762433 0.23196493 -0.5121262 -0.2012658 -0.35008705 0.46275035 0.5163821 0.49338755 0.13308537 0.81557447 -0.46290568 -0.80324346 0.23438953 -0.733562 0.05284353 0.032696713 0.49226522 0.608496 0.7699199 0.36928418 -0.41784984 0.6639995 -0.8717083 0.11965451 -0.051507108 0.18170676 0.32344994 -0.39444962 -0.48454493 -0.36773318 0.80734783 -0.25028574 0.36838466 -0.58974606 -0.2139194 0.1370771 0.13709685 0.04253636 0.7726453 -0.59133595 -0.7992914 -0.6444539 -0.23022607 -0.3632042 0.25693175 0.3794218 0.840877 -1.2829669 0.7013304 1.4526321 0.55188084 -0.070180036
25702 0.3701144 -0.01926031 0.37994167 0.14527938 0.32222986 0.033087667 -0.5715029 -0.5613491 0.33011532 -0.22305335 0.7208171 -0.16174324 0.119338095 0.09306353 0.2754677 -0.0035440514 0.22921933 -0.18429592 -0.3922934 0.4893256 0.17479885 -0.04900538 -0.42719728 0.602028 0.48194432 0.36679417 0.7988624 -0.6336821 -0.0679273 0.13236816 0.42000934 -0.32362494 -0.5292911 -0.5823709 -0.022824261 -0.66146106 -0.73031026 0.3477113 -0.6088733 -0.4084713 0.06556352 0.15841947 0.24969876 -0.260143 0.96978974 -0.3396011 0.07575327 -0.34623334 -0.1932775 0.40628237 1.0283003 -0.35660905 0.5549719 0.22435454 0.4805473 -0.20758277 -0.10577492 0.24336866 -0.007308241 0.038300253 0.24491222 0.9710502 0.08510521 0.6501609
66990 -0.55011153 0.21287267 -0.20719813 -0.67435783 -0.35716498 -0.0340926 -0.42586255 -0.538299 0.54585576 -0.087506175 0.38889247 -0.52518547 -0.4740667 -0.3163511 0.6298104 -0.6835246 0.15630314 0.5586399 -0.30014575 -0.4026507 -0.74946916 -0.27996808 -0.51505226 -0.19669613 -0.020319588 0.5689332 0.48772115 -0.117652275 -0.33936077 0.78668684 0.4169548 -0.042349916 -0.5460726 0.44141063 -0.44017294 0.22985448 -0.5235988 -0.29759118 0.5737292 0.23346153 0.19582844 0.5782874 -0.1843882 -0.3811045 1.1444427 0.3485307 0.3851504 -0.8160892 0.49523938 0.97587603 -0.400214 -0.19459704 -0.8446716 -0.7474179 -0.1908692 0.3351345 -1.0510951 0.046527028 0.012676168 -0.51146144 -0.16282235 1.6468672 0.21519847 0.20475754
65650 0.57640284 0.22068718 -0.051486198 -0.13688314 0.23686357 0.009464035 0.11695755 -0.5818138 0.46177316 -0.08325872 0.60015774 -0.2567737 0.43390974 -0.0050350623 0.9543364 -0.18781804 0.10254316 0.8030733 -0.44043103 0.43012327 0.027248336 0.21644665 0.5612887 0.5976239 0.18877877 -0.8035266 0.06612818 0.3096711 0.17597757 0.006899737 0.6725131 1.1479985 0.40077525 0.03492426 -0.27861425 0.13473512 0.30681095 1.3170067 0.033723537 -0.060894813 -0.1490623 0.27043352 0.065143615 -0.8220493 0.87784684 -0.029995536 0.36672533 -0.13113755 -0.12817034 0.092348896 0.12156907 0.44775116 -0.06645573 -0.44296256 -0.5143557 0.08114631 -0.49476928 0.23099276 0.76362675 -0.21838085 0.6406144 0.39696 0.8002212 0.38650107
112378 0.17838153 0.4606023 0.31178978 -0.081570856 -0.06602774 -0.13029225 -0.2224509 -0.7601269 0.1963986 -0.37671837 0.20458582 0.4937764 0.3330131 -0.13057454 0.36740568 -0.49766278 0.27102983 0.18331218 0.28423378 -0.118587814 0.7095288 0.022031346 -0.051381197 0.5143706 -0.047023866 -0.6845563 -0.14972328 0.14222261 0.12061208 1.4219713 0.020167667 0.07433425 0.525103 -0.67238533 1.1753092 -0.094461314 -0.22734775 1.2716734 0.5610798 -0.34235746 -0.061753523 0.66261005 0.36226073 0.46615463 0.6752881 0.5190628 -0.16042767 -0.35301983 0.19440088 -0.7405072 0.007866228 -0.48377773 0.020784015 -0.10660295 -0.9018068 -1.0946878 0.2566442 0.010348523 0.0046640434 -0.11161942 0.49483848 0.45139703 0.28637978 0.75967103
8875 -0.41158977 -0.32109085 -0.25323504 0.55434465 -0.43404984 0.21224579 0.28718492 0.010172728 -0.026216332 -0.45008114 0.3681713 -0.8203793 0.309871 -0.61122775 0.5090521 -0.19686638 0.592007 -0.60962534 0.039848637 0.25461388 0.39334264 -0.4809059 -0.8116411 0.09191348 0.20896076 0.2535191 0.05171049 -0.28930458 1.3829645 0.6106537 -0.37574336 0.35595426 0.43895084 0.70556813 0.41236138 -0.3728871 0.02395798 0.69617075 -0.19696817 0.33691442 0.18783669 0.3819183 0.19582748 -0.016004037 0.2852268 0.11642604 0.12157227 -0.07076863 -0.16921185 0.40878546 0.7428598 -0.24996234 -0.25122407 -1.1321907 0.10482332 -0.51412034 0.9304464 0.39652622 -0.08542262 0.5448029 0.090021916 0.16278316 0.34411037 -1.3910137
23116 0.8326961 -0.6259892 0.85248864 0.21309976 -0.7147361 0.05607408 -0.38782445 -0.13981614 -0.17437127 -0.088573895 0.67533547 -0.013101152 -0.21848084 0.71813595 -0.024106486 0.15716624 0.5132685 0.17548026 0.20814635 -0.5501168 -1.1528322 0.74497694 -0.16074757 0.514841 0.19964564 -0.2711251 -0.5803987 -0.43924344 -0.076146685 -0.08604791 -0.16616291 0.9349059 -0.5469291 0.14588813 0.005143731 -0.19802217 0.5124712 -0.36265498 -0.4335468 0.25433537 -0.052111883 0.19430505 0.31641412 0.3598372 1.0039463 -0.22380188 0.8401593 -0.6374746 -0.17955235 0.19904557 0.7956128 -0.3070111 0.7261651 -1.0848325 -0.46213838 0.17863871 0.5100994 0.10066991 -0.34709612 -0.4927781 0.2262668 0.7980756 -0.41125846 -0.81394106
3192 0.10349901 -0.37448147 0.5950519 -0.793791 -0.7542074 -1.040218 -0.78208166 -0.68688965 0.9054773 -0.48404503 0.45393634 0.50498426 0.2350274 0.30689657 0.3524 0.10462795 -0.17904559 -0.9971712 0.76556003 1.3254944 -0.18348117 -0.62345445 -0.39253905 -0.28869468 -0.3448824 -0.4592283 0.0019056168 0.24105956 -0.14125901 0.4500218 -0.22250609 0.7674824 -0.078960925 0.023049805 -0.60833716 -0.4765295 -0.1285046 -0.41918793 0.84178185 0.5809073 -0.39710227 -1.1203928 0.016714983 -1.0448393 0.03616691 -0.3803256 -0.07246592 -0.19158074 0.9657328 0.9474528 0.42188823 -0.018989768 -0.45555177 -0.17972323 -0.92555785 -0.25630268 0.6601772 0.49036947 0.29604593 -0.5298127 0.069408506 0.66827166 0.2667361 -0.23671792
1717 0.09128109 -0.51767504 -0.48407352 -0.5023065 -0.29014108 0.051051185 -0.8385082 -0.17623912 0.2514027 -0.3489303 0.10464143 -0.50846297 -0.44118762 -0.123503335 -0.29290837 -0.73624283 0.44204667 -0.97868615 0.48632583 0.08425654 -0.43898347 -0.44194132 0.121846035 0.43481198 -0.047664884 -0.3519817 0.8356078 -0.9669283 0.5970924 -0.13832138 -0.0340508 0.3178094 0.2521624 -0.1315762 0.10967179 0.15811075 0.097225614 -0.095188834 -0.039485335 -0.45317492 0.10011401 0.10190695 -0.6575117 -0.95439976 0.5697418 0.14665577 0.6404474 -0.13724986 -0.7166371 0.6783576 -0.20849428 -1.1724129 -0.25809136 -0.9200334 -0.3999877 0.26708984 -0.6654528 0.895601 1.2243357 -0.61182576 0.015325119 0.79247373 0.30446446 0.4441492
28957 0.62746084 -0.12427695 0.10977102 -0.7848666 0.58852434 -0.30802548 0.19089554 -0.5174165 0.37479946 -0.79422 0.9769125 0.31849217 0.8893807 0.5476361 -0.7360471 -0.1993181 0.2541361 0.061439738 -0.16302148 -0.1365726 0.015649779 -0.324491 -0.04106656 -0.5841131 0.33420116 -0.6855471 -0.56135565 -0.14935811 -0.5577844 0.042374305 0.21481657 0.13008903 -0.03254369 0.54410833 -0.6405677 0.08307209 -0.39206746 -0.23060995 0.042417653 -0.34383118 -0.067842565 -0.48741245 -0.18018499 -0.61664426 0.14137557 0.97116166 0.42733592 -0.92899936 0.25919485 0.32383204 0.12183728 0.07423067 -0.41683203 -0.10815168 -0.20589851 -0.17457442 -0.24981377 0.12093679 0.5923445 -0.88948107 -0.013165887 1.2385141 0.25876105 0.40932995
575077 0.18457064 -0.44372988 0.13187547 0.11329776 -0.37117052 -0.032424584 -0.3918018 0.1679507 -0.07169715 -0.51897144 0.51078904 -0.23667729 0.2515542 -0.09068995 -0.14734331 0.093034916 0.35999817 0.19682342 -0.10292571 0.092030406 0.76381004 -0.20542283 -0.61014545 -0.21729141 0.8399945 0.24350905 0.33344656 0.1958571 0.6929552 -0.48888156 0.1818169 0.7466244 -0.10385166 -0.7274969 -0.017399572 -0.7555246 0.6429252 0.18462576 -0.45319092 0.09541741 -0.11146228 -0.27174985 -0.014651775 -0.005056068 0.20863302 0.47438422 0.53939074 -0.63696164 -0.26410055 -0.2648394 0.33611542 -0.9395619 1.183705 -0.53853935 -0.13642643 -0.64725876 0.1346527 0.25103793 -0.7408618 -0.028426303 -0.6710448 0.6607454 -0.060595453 0.057412438
6741 -0.2004414 -0.20531307 0.1807028 -0.3189175 0.46591318 0.6933811 -0.1992856 0.32949564 0.823643 -0.4839664 0.083776474 0.7086388 0.9815304 -1.3195778 0.23198825 -0.017379818 -0.11392486 -0.7116027 0.14069343 0.19000891 -0.60186505 -0.5791503 0.21882823 0.57753885 0.08293374 -0.036743388 -0.9906211 -0.37198752 0.06223579 0.2521827 0.72642016 1.1681 -0.3972158 -0.30830157 0.45758376 0.4728204 0.67165756 0.5646559 -0.6872145 0.48404452 -0.20137513 0.37380096 0.31888214 -0.11884801 0.26117855 0.04254102 0.6993862 0.22547412 1.3637544 0.3393211 -0.30154952 -0.9733495 -0.055281457 -0.16975294 -0.24879484 -0.33722124 0.0117251165 0.15760338 -0.011011657 0.43257418 -0.3646761 0.44572592 0.35739955 -0.5113804
29492 0.059390593 -0.72749704 0.5796543 -0.3390038 0.43298212 -0.30009595 -0.30665982 -0.99264616 -0.8039524 -0.45023924 0.3083584 0.56576145 0.5188669 0.6557878 -0.40991622 0.76842386 1.4173129 -0.7970564 -1.0911102 0.7547456 0.26522014 -0.21849984 0.23471135 -0.58125633 0.5179038 0.3855857 0.0003133091 -0.46111482 -0.8824094 0.8202629 -0.09884555 -0.17473814 0.30954885 -0.5755478 0.7505268 0.10580487 -0.44437313 0.6303423 -0.785863 -0.11213651 0.33690754 0.043308217 -0.11012379 -0.15304297 0.48652148 0.36431593 0.06408745 0.19855662 0.5487755 1.2469586 0.22844608 -0.4481195 0.5605853 -0.76463777 -0.8764714 -0.011868216 -0.17623901 0.5403107 0.46845222 0.10995193 -0.8047754 0.32552707 0.04642066 -0.6174127
6923 -0.09332836 -0.28224534 0.15727395 -0.5152239 -1.4408042 -0.4110502 -0.18304943 -0.63762224 1.0506275 -0.46312895 0.20076093 -0.19482855 0.6901278 -0.2975382 0.059725672 0.05867451 -0.5537165 -0.36653522 0.3306814 0.17667949 -0.1317031 0.79468495 -0.36410362 -0.1934736 0.5725509 -0.73741734 -1.0720116 -0.080279745 0.17756587 -0.2966316 0.34780577 0.27617562 -0.015115885 -0.114878565 0.33414328 -0.49581346 -0.62853044 0.737348 -0.062857226 -0.14862852 -0.028074555 0.18414089 -0.78719467 0.95041424 0.16727382 0.37932065 -0.025148705 -0.5549681 0.48307374 -0.20506543 -0.23260939 -0.053830624 1.4960864 -0.50045174 -0.28484958 -0.3548706 -0.54514366 0.48693576 0.1767555 0.00040796693 1.2534516 0.65312564 0.82665735 0.27276686
20602 0.3548217 -0.58929724 -0.15732114 0.5174483 -0.25245485 0.3098595 0.043752063 -0.032796137 0.9142813 -0.7801289 1.1946179 -0.50721467 0.6911545 0.28578636 0.1718131 0.25595918 0.37501106 -0.9287779 0.12741584 0.9300637 -0.017514924 0.3358348 0.93696004 0.37199122 -0.46347713 -0.2436731 -0.78437454 -0.2154579 0.024743874 0.9703221 0.8055187 -0.124266036 0.09776327 0.45708418 -0.14943191 0.69629115 -0.64185613 0.762488 0.90372545 0.21283504 -0.6080597 0.23511314 0.4508152 -0.004682604 0.20547098 -0.5559878 -0.12463571 -0.67201287 0.31845674 -0.14617307 -0.17152296 -0.92214483 1.3607228 -1.0339881 -0.8686412 0.32812914 -0.20093481 -0.23179434 -0.23560542 -0.42637765 -1.1891924 0.85619897 1.014435 0.41306704
7419 -0.8762326 -0.7569911 0.79463947 0.14197126 -0.041941844 0.538093 0.397867 -0.41147655 0.82118577 -0.8276792 0.48075333 0.32663953 -0.49607491 -0.53023523 0.03153732 0.16595872 0.39887738 -0.4597332 0.03782655 -0.23200186 -0.07659853 0.22843443 0.053541616 -0.79986936 0.06183228 0.054915637 -0.44443217 -0.34937143 0.48050392 0.5315619 0.53587794 -0.16398671 0.6321927 0.28494683 -0.6739464 -0.115735814 0.38681528 0.05170058 0.39296302 -0.415413 0.044493843 0.7036168 -0.19287771 -0.23771313 0.78393614 0.37627137 0.7497055 -0.25257125 -0.09586441 -0.57699054 0.22069237 0.5098328 0.6547959 -0.16719814 0.67572254 0.14970692 -0.08428059 0.0807203 -0.060433473 -0.16555429 0.7009109 0.6884043 0.3448809 -0.647236
67415 0.2723581 -0.63956827 -0.8642205 0.3218705 0.086362414 -0.13533437 0.122338556 -0.45244834 1.1606245 -0.7304288 0.5908748 -0.58309984 0.4648842 0.33396807 0.54830426 0.19306351 0.46650773 -0.1366828 -0.027210718 -0.23296921 0.11258562 -0.060476378 1.5777899 0.32136473 0.018969152 -0.7634846 -0.20442235 0.016362784 0.15956745 -0.09586381 0.42351434 -0.065432 -0.3780946 0.79986155 -0.05406792 0.6287951 0.24260367 0.5629923 -0.16704205 -0.4112252 -0.4921182 -0.13674031 -0.35376075 -0.368458 1.0998305 -0.01184837 0.14078854 0.06589654 0.007241652 -0.07192091 0.37561476 -0.355834 -0.14616671 -1.1302346 -0.8705119 -0.39242402 0.35708076 0.11876887 0.69662005 -0.09860894 -0.38951245 0.39917547 0.4033451 0.14529921
3112 -1.0146402 -0.6342203 0.93464017 -1.2383091 -0.651833 -0.5870363 0.38513774 -0.7885678 0.17875421 -0.7337575 0.88285667 -0.18735465 1.2831368 -0.7557639 0.12052848 0.6200664 0.21622337 -0.48309568 -0.36468706 -0.2518637 -0.2255867 0.14173387 0.1747989 0.052854255 0.29474297 0.9697427 0.03059293 -0.3502999 -1.1743484 0.91096 -0.3946296 -0.6210897 1.2603564 -0.16209406 -0.6894239 -1.0126301 0.046882022 0.2579342 -0.085094884 0.7747214 -1.0638078 0.60704476 0.97153497 0.009476524 -0.8706968 0.3500046 0.6485954 -0.38690498 0.29026213 -0.067557484 -0.21155448 -0.04737191 0.72698855 -0.9488156 -0.17360681 0.21464927 0.5988629 0.81272626 0.40502995 -0.17267363 1.0383414 0.19908446 -1.504687 0.93415546
